//const double W0[LAYER_0_INDIM][LAYER_0_OUTDIM] = {
//    //  nn00        nn01        nn02
//    {0.4455272  ,0.55392843 ,-0.13121112},
//    {0.046779986,0.396654   ,-0.022363363},
//    {-0.7579524 ,0.4773703  ,-0.22135651}
//};

//const double W0[LAYER_0_OUTDIM][LAYER_0_INDIM] = {{0.5,0.5},{0.5,0.5}};


double W0[LAYER_0_OUTDIM][LAYER_0_INDIM] = {
{-0.10085297,  0.14022262, -0.02987895,  0.21607646,  0.08516707,  0.09199465,
  -0.06602372, 0.00168244, 0.17487967,-0.07131539,-0.07545625, 0.18210639,
   0.04468656, 0.001735  ,-0.17321627, 0.20529962, 0.13991305,-0.13845772,
   0.23518234,-0.02751902 },
 { 0.14491996, 0.149492  , 0.00243474,-0.21097986, 0.12517722,-0.02408992,
   0.23658213, 0.13772033, 0.05092335, 0.1591642 , 0.12313661,-0.05561162,
   0.01557039, 0.05988507, 0.05023498,-0.16741629,-0.1788922 , 0.15619148,
   0.08844244,-0.04298396 },
 { 0.04810939,-0.08502523,-0.14922434,-0.05874428,-0.20569944, 0.1705683 ,
   0.21003197, 0.1641686 , 0.01144526,-0.13257442, 0.06060057, 0.12234017,
   0.1578841 ,-0.09243079,-0.0356057 , 0.20452638,-0.08631684, 0.13828905,
  -0.18400232,-0.13401963 },
 {-0.14721173, 0.02848361, 0.08633308, 0.10585034, 0.03357752, 0.07173478,
   0.14785527,-0.14007193, 0.05741997,-0.19485016, 0.14367533, 0.00943074,
   0.10155749, 0.06406336, 0.18232287,-0.04936808,-0.10059306, 0.03475198,
  -0.14927207, 0.0237037  },
 { 0.1560953 ,-0.17244756, 0.09243731, 0.12973379, 0.02757607,-0.14060862,
   0.20313919,-0.15286407,-0.13085985, 0.01106492, 0.19875832,-0.16853866,
  -0.20615067,-0.10852284,-0.14297476, 0.22481063, 0.12869391,-0.05322541,
  -0.00678251,-0.15334214 },
 { 0.00179025,-0.13274775,-0.03386298, 0.05433705,-0.00617082,-0.05497778,
   0.08861445,-0.03976614,-0.06283294, 0.10238513,-0.01258634, 0.22431658,
  -0.17480525,-0.02028963, 0.20447949, 0.07577658, 0.11472967, 0.15508334,
   0.20275752,-0.02205169 },
 {-0.14606355,-0.21086453, 0.04951954, 0.13912624, 0.21900539, 0.20760958,
  -0.04549905,-0.1814913 , 0.05780724,-0.22307956, 0.05838951,-0.0791513 ,
   0.0658257 , 0.09838324, 0.11594766, 0.11690839, 0.00399349,-0.11440268,
   0.00513797, 0.19984776 },
 {-0.04033715, 0.2106631 ,-0.01625984,-0.05069403,-0.1172713 , 0.11725675,
   0.007232  , 0.05140865,-0.08100511, 0.01117044,-0.22615643, 0.16607186,
  -0.13078861,-0.17923859,-0.12365766, 0.00270933, 0.1042562 , 0.12534012,
   0.04801384,-0.05235022 },
 { 0.13591802,-0.06439311, 0.19642521, 0.11160682, 0.16502999, 0.05210831,
  -0.04808004, 0.03113669,-0.02188693, 0.04122832,-0.15633506,-0.00227599,
  -0.19765061, 0.09252052,-0.1217078 , 0.18355998,-0.07762687, 0.05937191,
  -0.06893192, 0.13832062 },
 { 0.1258455 ,-0.11743066, 0.05088555, 0.0274332 , 0.05607903, 0.08903416,
  -0.15466027, 0.13005817, 0.19168217, 0.19045627,-0.13580467, 0.11224516,
  -0.03287474, 0.14647098, 0.00161625, 0.11144222,-0.01916198, 0.10371269,
  -0.08269316,-0.16565405 },
 {-0.16768527,-0.0285432 , 0.19284551,-0.18409643,-0.12825954,-0.09663033,
  -0.13167155, 0.21739729, 0.03390317, 0.19823092, 0.18374324,-0.07044133,
  -0.21823193, 0.12406217,-0.09968696,-0.10589598, 0.04347149, 0.04332272,
   0.05563771, 0.0096887  },
 {-0.22447713,-0.01266151,-0.10252542, 0.19524436,-0.19255266, 0.1707201 ,
  -0.11961971,-0.07602061,-0.14617132,-0.06101936, 0.20495696, 0.00965075,
   0.01879254, 0.00097548,-0.11462996,-0.21113706, 0.10202533,-0.06701684,
   0.15271759, 0.02829071 },
 {-0.14839764,-0.1848212 , 0.13569759,-0.24037291, 0.11095157,-0.20704053,
   0.20471376,-0.10548539, 0.0601496 , 0.16434643,-0.04182876,-0.15981767,
  -0.08653928,-0.17229779, 0.23150347, 0.02427752,-0.17246528,-0.00951113,
   0.19277465, 0.17316616 },
 { 0.04743577,-0.07994074, 0.10502321, 0.09001619,-0.16203597, 0.14977467,
   0.13021137,-0.03404601,-0.19233955, 0.14996909,-0.12967828, 0.21055293,
   0.00451187,-0.11034356, 0.03839159, 0.22827022,-0.03503359,-0.10975302,
   0.22351679, 0.0928473  },
 {-0.11417809,-0.16167864,-0.0700416 , 0.15149762,-0.12875488,-0.18115124,
   0.16678052,-0.13531777,-0.16743043, 0.03169888,-0.03828355, 0.19994012,
   0.16420564, 0.07963954,-0.13053924, 0.16474855,-0.02083861,-0.1380923 ,
  -0.18878755, 0.1746391  },
 {-0.13344555, 0.13848448, 0.08033223,-0.1505531 , 0.17216374, 0.14074951,
   0.05333447, 0.04525594,-0.1786305 , 0.18043622,-0.20509629, 0.00720814,
  -0.19614439,-0.06491375,-0.21960554,-0.13007432, 0.08450358, 0.17626087,
   0.21130532, 0.118246   },
 {-0.22333491,-0.00273795,-0.06867425,-0.04142433, 0.07076833,-0.03821724,
   0.02787137,-0.1655061 , 0.08175126,-0.10934115,-0.12155303, 0.1578361 ,
  -0.14529592, 0.23585945,-0.00965038, 0.03082491,-0.09027395,-0.10096017,
   0.18301722,-0.04969234 },
 {-0.12914066,-0.11398892, 0.11303186,-0.05158585,-0.18752423, 0.1458481 ,
  -0.1320016 ,-0.18963178, 0.08656446, 0.02940356, 0.07091777,-0.06060802,
  -0.08370955,-0.14624599, 0.17720167,-0.00201476, 0.12120486, 0.07570646,
   0.05998488, 0.20410898 },
 {-0.17771457,-0.05749732, 0.01936241, 0.18100196,-0.11561128,-0.18892837,
  -0.22782612, 0.16630101, 0.0132445 , 0.17521226,-0.0084853 ,-0.09867948,
  -0.19210385,-0.01922009, 0.18758878,-0.06352998, 0.08731559,-0.09618701,
  -0.13455121, 0.03834865 },
 { 0.21892121, 0.03082921, 0.18721314,-0.18839005,-0.2027769 ,-0.1556724 ,
  -0.15233476,-0.10498787, 0.11891178, 0.18248051,-0.20071766,-0.13217439,
   0.21499538, 0.17749491,-0.01150827, 0.17436029, 0.00492881, 0.07825137,
  -0.2019412 , 0.02263236 },
 { 0.14902586,-0.08248922,-0.04610378,-0.04263749,-0.11555137, 0.2100925 ,
   0.17998888, 0.11772548, 0.06263056, 0.07083881, 0.09186675, 0.11070109,
   0.20828025, 0.06395976, 0.01301771,-0.17299882, 0.17748505, 0.09160328,
   0.01228312, 0.13168134 },
 { 0.08708667,-0.1197802 , 0.01479827,-0.09462138, 0.1477124 , 0.12452238,
  -0.21184675,-0.05454772, 0.06264773,-0.13764378, 0.18417782, 0.1770701 ,
   0.19586162,-0.02026965,-0.05719026, 0.21036267,-0.22499694, 0.02764798,
  -0.09162035,-0.20517759 },
 {-0.08334431, 0.11723493, 0.08744257,-0.0961524 , 0.11445411, 0.17167568,
  -0.02001132, 0.11702396,-0.15528499,-0.08005437, 0.02395195, 0.04799945,
  -0.07803962, 0.18741105,-0.04931376, 0.20475174,-0.09855326,-0.22278424,
   0.11605982, 0.12621106 },
 { 0.09596726, 0.02386588,-0.21484372,-0.23718457,-0.17813605, 0.09865779,
  -0.15199982, 0.16844045,-0.08034544,-0.12585077,-0.21637186, 0.15655856,
  -0.05977887,-0.15694912,-0.11469989, 0.03753769, 0.09996349, 0.01184476,
  -0.14482829,-0.19589455 },
 {-0.17642461, 0.04696429,-0.17606866, 0.17285648, 0.01945507, 0.19277962,
   0.08227211, 0.21494357,-0.02989952,-0.05102669, 0.17285517,-0.21518937,
   0.15735419,-0.08055888, 0.1341943 , 0.1207265 ,-0.18987472,-0.10790534,
   0.21111639,-0.21290058 },
 { 0.15889992, 0.20043543, 0.0595445 , 0.08137327,-0.00840311, 0.1749731 ,
  -0.05045241, 0.06462326, 0.00878348,-0.0644694 , 0.00511141, 0.20426382,
   0.16320539, 0.06064937,-0.18827702, 0.19943672,-0.17287521, 0.08373874,
   0.09204111, 0.16243061 },
 {-0.03496609, 0.14968656, 0.11733963,-0.06604053, 0.01979827,-0.05572848,
   0.15807524,-0.20040722,-0.20875682,-0.17158484,-0.01843743,-0.1130477 ,
  -0.05630453, 0.20776547, 0.00567118, 0.19619694,-0.17361116,-0.09699392,
   0.18214518, 0.11992874 },
 { 0.15198036, 0.12181725,-0.20901729,-0.05411393,-0.01543853, 0.06277419,
  -0.1280414 , 0.00603365, 0.18130139, 0.17601529,-0.07559984, 0.09662094,
   0.1816814 , 0.16779032, 0.13937657,-0.05372992,-0.12099926,-0.0929224 ,
  -0.08547746, 0.12858105 },
 { 0.14312594,-0.11150781,-0.2147955 ,-0.16058168, 0.16514054,-0.07443866,
  -0.09771632, 0.14008762, 0.14529142, 0.16718376, 0.14147012, 0.18687285,
  -0.09051751, 0.13794196,-0.19696586,-0.16052635, 0.21061625,-0.10059965,
  -0.21252374,-0.05936564 },
 { 0.17156133, 0.07993927,-0.19096261,-0.13722876,-0.00934977,-0.18075925,
  -0.01799179, 0.13763292,-0.11004762,-0.05349153, 0.15458961, 0.19872847,
   0.19860572, 0.09845222,-0.08636741,-0.02307109,-0.20033488, 0.03202196,
   0.18915054,-0.19383332 },
 {-0.03519959,-0.12256211,-0.15960759,-0.04450127,-0.17582028, 0.20899756,
  -0.16522744, 0.20914114, 0.14118017, 0.13579187, 0.21252643, 0.15660256,
  -0.13725705, 0.01196237, 0.16712095,-0.09025227, 0.04569719,-0.11013182,
  -0.02495607,-0.1487216  },
 {-0.21010558, 0.01042011, 0.12895668, 0.03128875, 0.20757012, 0.12994005,
  -0.1966403 ,-0.04761422,-0.16847482,-0.02058351,-0.04566413, 0.22798948,
   0.05257273,-0.13492572, 0.1658776 ,-0.21570522,-0.0259054 , 0.05686612,
  -0.18751875,-0.12926558 }};
