//const double W1[LAYER_1_INDIM][LAYER_1_OUTDIM] = {
//    {-0.13311525},
//    {0.29222623},
//    {0.4000595}
//};

//const double W1[LAYER_1_OUTDIM][LAYER_1_INDIM] = {{0.5,0.5},{0.25,0.25},{-0.25,-0.5}};


double W1[LAYER_1_OUTDIM][LAYER_1_INDIM] = {{-1.17272355e-01,  3.24258991e-02, -6.47756271e-03,  6.85954690e-02,
	 6.83884472e-02, -6.48203194e-02, -6.50970358e-03,  3.12832445e-02,
	-1.32267103e-01,  7.64013007e-02, -1.11310318e-01, -1.11115202e-01,
	 1.49238631e-01,  7.31400959e-03, -1.56176671e-01,  9.81914103e-02,
	-4.23018821e-02, -1.53907016e-01,  8.31429362e-02, -1.47115495e-02,
	 5.37787378e-02, -8.49957168e-02,  7.51689970e-02,  7.10655749e-02,
	-9.62349698e-02, -2.14188732e-02,  5.50810732e-02,  4.13613282e-02,
	 6.83866674e-03,  5.08084148e-03, -6.95569217e-02, -1.62457958e-01 },
 { 1.80195838e-01, -1.42183110e-01,  1.56899154e-01, -1.20102659e-01,
	-2.62002111e-03,  1.78209245e-01, -1.31620720e-01, -9.38253999e-02,
	 7.86970109e-02,  4.47980203e-02, -1.10552989e-01, -6.67147934e-02,
	-1.30427659e-01,  1.95896283e-01,  1.38725758e-01, -1.18273063e-04,
	 6.38081580e-02, -1.29129276e-01,  4.05362900e-03, -9.81942192e-02,
	 5.85717000e-02,  1.10571854e-01, -2.72935275e-02, -2.23181367e-01,
	-2.09492743e-02, -1.39564902e-01,  3.75128444e-03,  9.49827582e-02,
	 9.05779302e-02, -9.21886116e-02,  1.19511455e-01,  1.89364165e-01 }};

