
#define imge_len 32
#define imge_wid 32
#define p1_o_len 16
#define p1_o_wid 16
#define p2_o_len 8
#define p2_o_wid 8
#define p3_o_len 4
#define p3_o_wid 4
#define conv1_num 32
#define conv2_num 16
#define conv3_num 8
#define l4in_num ((imge_len*imge_wid)/8)
#define l4out_num 64
#define l5out_num 64
#define so_num 3


char imge1[imge_wid+2][imge_wid+2];
float p1_data[p1_o_len][p1_o_len][conv1_num];
float p2_data[p2_o_len][p2_o_len][conv2_num];
float p3_data[p3_o_len][p3_o_len][conv3_num];
float l4_data[l4out_num];
float l5_data[l5out_num];
float so_data[so_num];
float precent[so_num];
static float c1_weight[3][3][conv1_num] =
{{{ -0.18114144,  0.07046918,  0.12631711, -0.12810434,  0.08394185,
    -0.02614427,  0.05476458, -0.06273923,  0.08600462, -0.0767614 ,
    -0.08595342, -0.00375058, -0.08404778, -0.07945722,  0.03491244,
    -0.04425621, -0.00101109, -0.07645627, -0.10606688, -0.01191295,
    -0.11589708,  0.04645535, -0.00620823, -0.1364348 , -0.10219521,
     0.08655679, -0.0925175 , -0.02036316, -0.14797124, -0.02700109,
     0.12451299,  0.03951047},                                  
                                                                   
  { -0.07864024, -0.12233227, -0.11547429, -0.08804319,  0.11447891,
     0.01573717,  0.06771407,  0.02122004, -0.15953979,  0.01335829,
    -0.02636004,  0.1025057 ,  0.01358965,  0.02990193,  0.08579413,
     0.1160682 ,  0.09255307, -0.09034619,  0.05038725,  0.11217551,
    -0.01348625,  0.09934348, -0.01633224, -0.02310684, -0.01727713,
     0.00376321, -0.14423886, -0.1303337 , -0.01086824,  0.1476167 ,
     0.16684522, -0.04902212},                                  
                                                                   
  { -0.1646469 , -0.10142604, -0.0286238 , -0.05912533, -0.10782059,
     0.01556266, -0.11361858, -0.18451881, -0.00375624, -0.05104882,
     0.13633728,  0.06894331, -0.05750675, -0.1260102 ,  0.12553005,
    -0.08726741, -0.0888145 ,  0.10768548,  0.03689673,  0.09256997,
     0.09891696, -0.05473801, -0.14841056, -0.08873999,  0.01413039,
     0.15010695,  0.0386711 ,  0.11748613,  0.10498626,  0.17133144,
    -0.04491682, -0.01983486}},                                
                                                                   
                                                                   
 {{  0.11557002,  0.00504535,  0.10976119, -0.01190869, -0.12575045,
     0.04921732, -0.06816135,  0.01062678,  0.07849374,  0.00256128,
     0.10166197, -0.01348529, -0.08140194, -0.04479374,  0.16660784,
     0.09075005, -0.00592538, -0.03621149, -0.07284027, -0.05598931,
    -0.05703625, -0.03082833,  0.01485515, -0.01556229,  0.10399646,
     0.12152813,  0.06076131, -0.05569843, -0.00561564,  0.03962047,
    -0.05050847,  0.02419939},                                  
                                                                   
  {  0.18687996,  0.10029437,  0.10876906, -0.03812592,  0.02493277,
    -0.10369455, -0.01905079,  0.1018452 ,  0.00560563, -0.04607011,
     0.10804772, -0.0272131 , -0.07570938, -0.15943119, -0.04433086,
    -0.16846617,  0.02976377, -0.08044276,  0.00548426, -0.05734735,
    -0.00293715, -0.0365239 , -0.05569962,  0.02612005, -0.0205036 ,
    -0.03148966,  0.05346358,  0.00341379, -0.01603975,  0.15214314,
    -0.12067657,  0.1491817 },                                  
                                                                   
  { -0.17933182, -0.14350094,  0.0641868 , -0.12180964, -0.01502335,
     0.00725213,  0.0118722 , -0.04769168, -0.07422307, -0.04228251,
    -0.01043817,  0.18647768,  0.01851605,  0.13096094,  0.04745532,
     0.04507483, -0.05221734, -0.10959633, -0.05524556, -0.14039735,
     0.12508903,  0.06893567,  0.16106617, -0.0026035 , -0.03586739,
     0.0911026 , -0.08694708,  0.05247895, -0.12728268, -0.05879821,
     0.16798384,  0.02551888 }},                                
                                                                   
                                                                   
 {{  0.04077147, -0.0469893 ,  0.19764291, -0.0250518 ,  0.05614777,
    -0.05557234,  0.10050219,  0.08253221, -0.10332887, -0.10247378,
     0.11535858, -0.006815  ,  0.0210254 , -0.0245398 , -0.07186891,
     0.20675653,  0.11771711,  0.03860479, -0.00780191,  0.04036094,
     0.05368173, -0.02245766,  0.02814881,  0.03231124,  0.0312167 ,
     0.04729078,  0.0221734 , -0.02864194, -0.08849286,  0.12819843,
     0.00855958, -0.07687069 },                                  
                                                                   
  {  0.03321794,  0.09105445, -0.07349354,  0.10838525, -0.01445191,
    -0.00153122,  0.07672077,  0.00728989,  0.02055685, -0.0709439 ,
     0.08924522,  0.11597162, -0.17412451,  0.10110933,  0.04591213,
    -0.00721687, -0.03342368, -0.06435399,  0.16416891,  0.08438171,
    -0.18243818, -0.02162391,  0.09796135, -0.06235909,  0.01160278,
     0.1168564 ,  0.04874282, -0.00683229, -0.139263  , -0.0975236 ,
     0.06472578, -0.00767448 },                                  
                                                                   
  { -0.06604327, -0.14469996,  0.11708401, -0.01704597, -0.0168396 ,
     0.09051263,  0.20173213,  0.05781282,  0.02133486, -0.15527408,
    -0.01115547,  0.07386657, -0.0548347 ,  0.0216246 , -0.06320263,
    -0.02318721, -0.1919642 , -0.14482696, -0.00071178,  0.08610576,
    -0.01840746,  0.07558279, -0.14413516,  0.0800501 ,  0.00753241,
     0.0714916 ,  0.09546669, -0.05471336, -0.07822616,  0.13330655,
    -0.05441943, -0.10470823 }}};
static float c1_biases[conv1_num] = 
{0.10311637, 0.10523651, 0.09776323, 0.10505598, 0.10874257, 0.10862813,
 0.11026742, 0.10337933, 0.1027525 , 0.09706439, 0.11182304, 0.10397787,
 0.09204047, 0.11190054, 0.10511164, 0.08935928, 0.09221509, 0.10669681,
 0.11118968, 0.10979567, 0.09611435, 0.09068264, 0.10917285, 0.11206331,
 0.10470989, 0.09080442, 0.1100353 , 0.10851023, 0.10399102, 0.10720499,
 0.09668905, 0.10921745};
static float c2_weight[3][3][conv1_num][conv2_num] =
{{{{ 1.23404013e-02, 1.11528456e-01,-4.88034487e-02,-2.50688009e-02,
     2.06059843e-01,-1.25590954e-02,-2.84104049e-02,-1.73953846e-01,
     1.91808923e-03,-4.16203663e-02,-4.44773622e-02,-1.11796167e-02,
     5.33736050e-02, 4.56589647e-02, 1.55625325e-02, 2.04538349e-02},
   {-7.00716861e-04,-1.01119839e-01, 8.87728259e-02, 9.71480310e-02,
     1.67698860e-01, 4.98412438e-02,-8.90867412e-03,-7.45035429e-03,
    -8.39066282e-02,-4.74103307e-03,-1.29410118e-01, 1.72632739e-01,
    -1.69725746e-01, 2.83630360e-02, 1.35136411e-01,-1.11912571e-01},
   { 7.24831149e-02, 6.30990416e-02,-7.63708577e-02,-3.27834375e-02,
     7.12402314e-02,-1.17942005e-01, 6.82203025e-02, 3.90963219e-02,
    -4.62931916e-02,-4.59345095e-02, 1.16115578e-01,-7.05906153e-02,
    -3.49023826e-02,-6.96622282e-02, 5.02991527e-02,-1.45572901e-01},
   { 1.14299636e-02, 7.90512860e-02, 1.64092794e-01, 3.84018086e-02,
    -1.04342997e-01, 8.26221481e-02, 7.04151243e-02,-8.43468308e-02,
    -6.22641630e-02, 5.90214245e-02, 1.60877462e-02,-8.79384950e-02,
    -9.05614439e-03,-2.17616893e-02,-4.48948052e-03,-4.88802530e-02},
   {-3.18119340e-02,-5.16280606e-02, 2.85488646e-02,-5.41008823e-03,
     3.56280766e-02,-7.27137700e-02, 5.15770167e-03, 1.16115727e-01,
    -1.99247207e-02, 9.18714702e-03, 3.41486596e-02,-1.40635654e-01,
    -5.09893112e-02,-8.15967396e-02,-6.19996600e-02,-6.19982295e-02},
   {-1.64320901e-01, 6.26236498e-02,-6.96003437e-02,-1.60622120e-01,
     6.59344113e-03, 5.07207438e-02,-1.86110102e-02, 1.61092341e-01,
     5.13898283e-02, 2.18978953e-02,-1.77449808e-02,-5.62745593e-02,
     7.12350309e-02,-5.94866276e-02, 8.41908902e-02, 1.10545440e-03},
   {-1.82186350e-01, 1.46884590e-01, 1.54044544e-02, 1.03847422e-01,
     1.81276605e-01,-3.71665657e-02,-1.27153680e-01, 4.20666188e-02,
    -1.12266066e-02, 1.65863652e-02, 2.46678051e-02, 1.13025263e-01,
     3.05376831e-03,-8.46371055e-02, 6.07293993e-02, 1.44786954e-01},
   { 6.51148753e-03, 1.13226108e-01, 9.84463170e-02,-5.48635274e-02,
    -7.98045248e-02,-7.48637877e-03, 9.43135247e-02,-5.38958274e-02,
     1.09356746e-01,-1.25113592e-01, 1.49281053e-02, 3.41722718e-03,
    -1.53796658e-01,-3.00580915e-02,-1.69205874e-01,-8.03082436e-02},
   { 1.49911612e-01, 2.51620705e-03,-7.43781626e-02, 1.53205439e-01,
     6.42078668e-02,-5.55315986e-02, 5.92264757e-02, 6.21364526e-02,
     3.60781094e-03, 1.19173504e-01,-1.11200228e-01,-2.93313004e-02,
     1.88320428e-02,-9.68135335e-03,-1.00270234e-01,-1.56095132e-01},
   {-1.05913445e-01, 4.89240699e-02,-1.42252490e-01,-4.20021191e-02,
    -6.25790134e-02,-3.88085023e-02,-5.27132303e-03, 5.24064228e-02,
    -2.07757819e-02,-1.84134766e-01,-2.72215884e-02, 6.10317998e-02,
    -1.10202387e-01,-1.26204174e-02,-3.01541667e-02,-1.66580044e-02},
   {-4.53199409e-02, 7.95427710e-02, 7.56009072e-02,-3.51476371e-02,
     1.21638216e-02, 4.98068035e-02,-1.48789614e-01,-4.67095088e-04,
    -1.42933771e-01,-1.56697482e-02,-1.00004680e-01,-7.88763985e-02,
    -5.29989339e-02,-1.48609325e-01, 8.49093124e-02,-1.30985439e-01},
   { 1.11396439e-01,-4.41097952e-02, 1.08260475e-01,-1.12782954e-03,
    -6.82870392e-03,-1.68604366e-02, 1.31223023e-01, 1.44535705e-01,
     8.88462737e-02, 4.38941866e-02, 2.04900041e-01,-3.99635509e-02,
    -4.61829305e-02, 7.34224170e-02,-7.86834117e-03,-3.84921916e-02},
   { 2.36231145e-02, 1.34393880e-02, 6.52595758e-02, 1.26553699e-01,
    -5.96480072e-03,-4.39758748e-02, 4.35050353e-02,-1.23995170e-01,
     4.30103727e-02, 8.94604251e-02, 1.59617573e-01, 1.48920849e-01,
    -1.05329290e-01,-7.76747242e-02,-1.38888001e-01, 1.78831629e-03},
   {-1.44485399e-01,-1.49375945e-01,-4.42666225e-02, 5.18909283e-03,
     2.02265941e-02, 6.16338924e-02,-1.85654446e-01, 4.01829295e-02,
     1.78963482e-01, 2.29014326e-02, 8.74294192e-02,-2.26129275e-02,
     1.42920986e-01,-6.42710179e-02,-8.21592733e-02,-9.49882865e-02},
   { 2.10732520e-01,-3.77512909e-02,-8.34920704e-02,-5.27101904e-02,
    -1.21714160e-01, 1.60590425e-01,-1.45929053e-01,-1.16816059e-01,
     1.48270771e-01,-9.23420489e-02, 8.00759643e-02, 3.64782661e-02,
     5.68294749e-02,-1.57905798e-02, 8.72847512e-02, 1.08553551e-01},
   { 8.39345753e-02, 1.11873530e-01,-5.92343472e-02,-2.40945350e-02,
     7.77157992e-02, 1.10215433e-01, 3.75144444e-02,-9.55675095e-02,
    -9.52523947e-02,-9.68881696e-02,-5.52465431e-02,-1.28232852e-01,
    -1.11599162e-01,-4.06878954e-03, 1.14204235e-01, 5.46534844e-02},
   {-1.63274959e-01,-6.94216564e-02,-1.18157357e-01, 5.50757125e-02,
    -9.85703468e-02, 1.76417962e-01,-3.12539819e-03,-7.36761615e-02,
     1.36617959e-01, 4.62784152e-03,-9.86519977e-02, 1.72809109e-01,
     2.27068476e-02, 1.14458419e-01,-1.90139309e-01,-1.33055434e-01},
   {-1.44907027e-01, 1.89925700e-01, 4.99242358e-02, 6.26229197e-02,
    -1.64388031e-01,-2.95681041e-02,-1.49630919e-01, 4.34640199e-02,
     7.93674812e-02,-1.01788446e-01,-6.12597242e-02,-1.07533470e-01,
    -4.13446799e-02,-7.63588622e-02,-1.31956991e-02,-3.74598010e-03},
   {-1.09887995e-01,-4.83762138e-02, 8.41993615e-02, 2.64263824e-02,
    -5.21747097e-02,-1.77238092e-01,-1.78902924e-01, 7.27555454e-02,
    -1.67194948e-01,-2.26922496e-03,-2.19486170e-02, 1.30617812e-01,
    -4.47429679e-02,-8.81229639e-02, 1.80577546e-01,-6.51816204e-02},
   { 1.26395628e-01,-9.09782797e-02,-5.20063117e-02,-4.90635075e-03,
    -1.20412316e-02, 1.12312913e-01, 7.86370412e-02,-4.75971587e-02,
     3.98354158e-02,-1.56882584e-01,-2.60069128e-02, 9.59165320e-02,
    -1.15661927e-01,-1.34010762e-01, 2.59954482e-02, 9.89637449e-02},
   {-4.04192396e-02, 1.06753595e-02, 6.02380671e-02,-6.06554076e-02,
     4.07897681e-02,-5.45498356e-02, 6.40531108e-02, 5.35428822e-02,
     1.13666989e-01, 3.39458548e-02,-2.70406809e-02, 1.97604507e-01,
    -3.79077941e-02, 5.70390783e-02,-3.37628694e-03,-1.30608320e-01},
   { 1.23204805e-01,-1.60565346e-01, 1.64397255e-01, 5.51245883e-02,
     1.59925923e-01,-9.46099013e-02, 6.56565875e-02, 1.14624508e-01,
     1.10651068e-01, 5.73043413e-02,-2.73869727e-02,-8.90777558e-02,
    -9.00315866e-02,-9.70373489e-03, 1.93194687e-01,-1.82502732e-01},
   {-2.65705194e-02, 6.87372535e-02, 6.67141378e-02, 9.83052328e-02,
     6.58136085e-02, 1.13609871e-02,-9.66905616e-03, 1.99488234e-02,
     5.80347478e-02, 1.09001985e-02, 3.14579085e-02,-1.68311402e-01,
    -1.70965567e-01, 5.15068956e-02, 5.63723743e-02,-1.21007442e-01},
   { 1.72760207e-02, 1.89291090e-02,-1.35272861e-01,-6.82212338e-02,
    -1.39519218e-02, 1.51469767e-01,-2.64814477e-02, 3.17749977e-02,
     7.01012984e-02,-1.10146016e-01, 1.51281198e-02, 1.49749815e-01,
     1.16581909e-01, 7.27882460e-02,-1.06722802e-01,-4.32699248e-02},
   {-9.04601812e-02,-9.56520662e-02,-2.83026751e-02, 6.09570369e-02,
     3.23947892e-03, 1.42386168e-01,-1.28888652e-01,-2.19959039e-02,
     5.79649545e-02,-1.11288331e-01, 3.91393118e-02,-5.37944166e-03,
    -3.32808085e-02, 4.81950901e-02, 1.69426352e-01, 1.31291477e-02},
   { 1.21338509e-01, 4.51529697e-02, 5.55679463e-02, 5.40683493e-02,
    -7.16859996e-02, 6.24996349e-02, 9.41886976e-02,-8.40666741e-02,
     4.67197895e-02,-1.68456708e-03, 1.90508038e-01,-1.22738415e-02,
     9.79551114e-03, 1.37263119e-01, 8.19916800e-02,-1.33924693e-01},
   { 5.98495007e-02, 1.02049217e-01,-8.34220089e-03,-4.42463905e-03,
     7.08966106e-02, 1.18551189e-02, 1.04626372e-01, 1.33380070e-01,
     4.03018184e-02,-1.34720773e-01, 7.02305883e-02,-9.74629670e-02,
     9.91861224e-02,-6.16677143e-02,-3.28751691e-02,-6.80608824e-02},
   { 1.07274763e-01,-8.11919644e-02,-6.10033721e-02, 7.48666096e-03,
    -6.79687932e-02,-5.04547991e-02,-7.08229095e-02, 1.16277941e-01,
    -7.26167262e-02, 7.43967146e-02, 7.37527106e-03,-1.10122062e-01,
    -9.99933928e-02, 5.26749389e-03, 1.04648635e-01, 9.71124843e-02},
   { 1.36521542e-02,-4.74692993e-02, 1.83089048e-01, 5.97382151e-02,
     9.75442976e-02, 7.65341893e-03,-1.76384360e-01,-4.29611914e-02,
    -7.22376108e-02, 2.27067452e-02,-4.27160934e-02, 8.91536027e-02,
    -6.38796343e-03,-1.04770213e-02,-1.56187236e-01,-1.34865001e-01},
   {-5.09184040e-02, 1.23510160e-01,-1.07063413e-01, 1.01586267e-01,
     1.90014049e-01,-1.47171235e-02,-1.27534205e-02,-1.46717504e-01,
     1.39922574e-01,-1.09863415e-01,-1.81646153e-01,-4.18657577e-03,
    -1.83006614e-01, 3.36165875e-02,-2.17704196e-03,-5.66642918e-02},
   {-1.88767631e-02, 9.49639976e-02, 1.14331625e-01, 1.87664106e-01,
    -1.36508912e-01,-4.23840620e-03,-1.58999935e-01,-1.55631483e-01,
    -8.89987797e-02, 1.88746437e-01,-4.14745659e-02,-7.81924278e-02,
    -2.54490133e-02,-8.84386525e-02, 1.96201995e-01,-1.08597286e-01},
   {-9.22789127e-02,-4.01019938e-02, 4.55667749e-02,-1.74535602e-01,
    -1.22923858e-01, 9.67369229e-02,-7.15447813e-02, 2.11532377e-02,
     7.84787058e-04, 1.34773716e-01,-1.57739162e-01,-1.07755804e-04,
     4.68930118e-02,-7.51637816e-02, 9.25221592e-02, 1.04396477e-01}},
                                                                   
  {{-6.34983368e-03,-1.37899160e-01, 6.58379570e-02, 7.85855949e-02,
    -6.84427246e-02,-1.17649451e-01,-1.30765170e-01,-3.56904627e-03,
     2.48299297e-02, 1.70856193e-01,-1.02946125e-01, 6.78810924e-02,
    -1.12988865e-02, 5.67496978e-02,-1.29567180e-02,-1.73296519e-02},
   { 7.61313811e-02,-7.01503381e-02, 1.30116403e-01, 1.13418460e-01,
     9.75305215e-03, 1.10649131e-01,-7.25310221e-02, 7.96037987e-02,
     1.00290664e-01, 6.90078959e-02,-7.58159487e-03,-8.94778296e-02,
    -1.75886676e-01,-1.99241713e-02,-4.84259613e-02, 6.39211619e-03},
   {-3.22446562e-02,-1.96640313e-01,-1.62974939e-01, 1.68290764e-01,
    -8.97792950e-02, 6.37472123e-02,-4.48042043e-02,-1.80438370e-01,
     1.28937438e-01,-4.02098149e-02,-1.39753684e-01,-9.50451121e-02,
     4.00780775e-02, 8.55415128e-03,-3.21036205e-02, 5.92530472e-03},
   {-9.58946794e-02,-2.91447174e-02,-3.67522091e-02,-3.06770429e-02,
    -1.10844254e-01,-2.33015027e-02,-1.27499118e-01,-1.11309364e-01,
    -1.59537986e-01, 4.84885499e-02, 1.59432217e-01, 5.91791645e-02,
    -1.02947868e-01,-5.46480296e-03, 5.98286577e-02,-2.34134980e-02},
   { 1.35463402e-01,-1.31415755e-01,-2.86211483e-02,-4.15868200e-02,
    -9.94934440e-02,-9.60579813e-02,-1.51587114e-01, 1.21957339e-01,
     2.72224545e-02, 2.75698248e-02, 9.31293443e-02,-1.59745544e-01,
     5.60978055e-02, 7.78101906e-02,-2.67891232e-02, 1.16087846e-01},
   {-7.93080926e-02, 1.57974675e-01, 4.38724943e-02, 1.69739529e-01,
     3.66217317e-03,-2.08742470e-02,-6.98335841e-02,-1.81273088e-01,
    -1.81143746e-01,-1.38303176e-01, 9.00034532e-02, 3.34268697e-02,
    -7.38570020e-02, 1.49644930e-02, 2.46360265e-02,-1.21419787e-01},
   { 1.45599663e-01, 1.71265379e-01, 7.55575970e-02, 1.67557776e-01,
     9.38732475e-02, 3.47988773e-03,-5.14918007e-02, 1.84370559e-02,
    -1.74390256e-01, 9.22213569e-02, 5.69836423e-02, 1.21620953e-01,
    -3.18066254e-02, 6.59278929e-02, 1.88634709e-01,-1.29453633e-02},
   {-3.35986726e-02, 1.36791244e-01, 2.62264777e-02,-8.51421356e-02,
    -1.17926866e-01, 7.92940781e-02, 2.72948369e-02,-1.63632855e-01,
    -1.37973921e-02, 6.57280535e-02,-7.20150098e-02, 1.31629944e-01,
     4.02492173e-02,-1.48142248e-01, 1.18061611e-02, 1.14676774e-01},
   {-1.46974459e-01, 2.48054359e-02, 7.50886351e-02,-9.85532999e-02,
     5.23588620e-02, 1.74580306e-01,-1.31944388e-01,-5.45013919e-02,
    -1.14039266e-02, 6.83473572e-02, 5.64093739e-02, 1.98756736e-02,
     4.75084037e-02, 3.76620097e-03,-1.74864098e-01, 5.24680922e-03},
   { 5.68519905e-02, 1.60508499e-01, 1.21381819e-01, 7.57153183e-02,
    -8.46867487e-02, 6.03636615e-02,-3.35194804e-02,-1.61742210e-01,
     4.88906540e-02,-6.18968382e-02,-2.31796987e-02, 1.78160388e-02,
    -1.66425556e-02, 1.09679788e-01,-1.96755230e-01, 1.30902037e-01},
   { 2.07205668e-01, 3.41432467e-02,-5.31588420e-02, 1.37674034e-01,
    -1.24047972e-01,-6.39378428e-02,-1.69353038e-01,-1.92972124e-02,
    -8.63260925e-02, 4.89001907e-03, 1.45569384e-01, 7.07248375e-02,
     6.12101071e-02,-1.23245478e-01, 1.08269259e-01,-1.35316908e-01},
   { 1.24823518e-01,-6.41795769e-02, 8.94168392e-02, 5.57089038e-02,
    -2.52351109e-02,-1.90241989e-02,-1.53807491e-01,-1.94239281e-02,
     6.32227631e-03,-1.32386521e-01,-1.11328706e-01,-1.87714726e-01,
    -1.25618279e-01, 9.98265371e-02, 7.08751194e-03,-2.96242665e-02},
   { 5.46777397e-02, 1.27381444e-01,-4.99026403e-02, 1.68382935e-02,
    -1.64056011e-02,-1.20123871e-01, 1.13948815e-01,-6.15481064e-02,
    -8.78358036e-02, 1.85097173e-01,-1.86353862e-01, 3.70113403e-02,
     9.10751969e-02,-1.06878608e-01, 7.94393569e-02,-6.78836852e-02},
   {-1.59697548e-01, 1.72228143e-01,-1.19317435e-01,-5.01555800e-02,
     1.52310297e-01, 1.99210957e-01, 8.52998719e-02, 5.95187992e-02,
    -1.83187887e-01, 9.14021209e-02,-3.19496803e-02, 1.47753013e-02,
    -2.98943315e-02, 4.83777225e-02,-1.50652260e-01,-6.57913163e-02},
   {-1.44970596e-01,-5.29366806e-02,-5.43849841e-02, 1.08982891e-01,
     2.76503041e-02, 5.67747317e-02, 5.17272167e-02, 6.69677705e-02,
    -9.71196592e-02, 3.43112536e-02, 4.61389236e-02,-2.65818136e-03,
     1.60002917e-01, 3.90432850e-02, 3.30943093e-02, 1.99939549e-01},
   {-3.26574147e-02,-7.55452365e-02, 6.63104132e-02, 3.98916304e-02,
    -7.62924775e-02, 1.10300742e-02, 5.89597449e-02,-9.07360911e-02,
    -7.01595768e-02,-9.85443965e-02,-8.56887773e-02, 7.36229420e-02,
     4.47130054e-02,-6.72346428e-02,-3.24143246e-02, 6.53722361e-02},
   { 6.61897734e-02,-7.22509697e-02, 5.87859331e-03,-9.15647820e-02,
    -8.81790444e-02,-9.82679874e-02,-7.15300888e-02, 1.37091607e-01,
     1.19782001e-01, 7.82477111e-02,-6.07236708e-03, 3.95340770e-02,
    -1.51704624e-01,-2.04082988e-02,-2.11150125e-02,-8.66438746e-02},
   { 1.57501534e-01, 3.51493321e-02,-1.79473944e-02, 1.08764857e-01,
     9.44616646e-02,-1.83191940e-01, 1.66251615e-01, 7.36354589e-02,
     4.67378497e-02, 3.83820310e-02,-3.26007977e-03, 1.36196598e-01,
    -8.17745551e-02,-6.75244182e-02,-1.22986481e-01, 1.69533879e-01},
   {-1.11726932e-01,-6.06596619e-02, 5.72025105e-02,-1.19389303e-01,
     7.14219734e-02, 2.59868596e-02, 4.15549986e-02,-6.48353770e-02,
     1.24470815e-01,-9.60543752e-02,-1.64172530e-01, 7.19636902e-02,
     1.33312240e-01, 4.81114760e-02,-5.51119298e-02,-3.82073261e-02},
   { 5.49564622e-02, 1.30596429e-01,-6.76302165e-02,-8.50955248e-02,
     9.73341055e-03,-6.16769008e-02,-5.82688116e-02, 8.27952772e-02,
     5.17717823e-02, 1.03412658e-01,-1.51780322e-01,-1.19159058e-01,
     1.17045045e-01,-3.62638831e-02, 8.54844153e-02,-1.56142190e-02},
   { 2.59994343e-02,-5.86459786e-02, 2.00150572e-02, 1.00684427e-02,
    -1.76978428e-02,-1.04761697e-01,-1.05754584e-01, 6.23389184e-02,
     4.20349911e-02, 1.30031845e-02, 8.82429108e-02,-1.77362096e-02,
     3.33833285e-02, 6.00427352e-02, 1.02908246e-01, 7.59961680e-02},
   {-1.05478853e-01,-7.29784891e-02, 6.39578551e-02, 6.13012910e-02,
     2.71689463e-02,-9.74662006e-02, 2.40495205e-02, 5.82694635e-02,
    -4.92675267e-02, 1.68536268e-02, 4.76982407e-02, 4.50837193e-03,
     1.00007497e-01, 9.07013863e-02,-8.54800418e-02, 1.11866839e-01},
   { 6.83244765e-02,-3.73614170e-02,-7.61278123e-02,-1.42840790e-02,
     1.05800219e-01, 1.17903627e-01, 7.01640546e-02, 1.05409361e-02,
     1.00916013e-01,-9.01140869e-02, 7.14679360e-02,-1.34704383e-02,
    -7.56967366e-02, 1.60013616e-01, 1.83810983e-02,-1.37278484e-02},
   { 2.75609195e-02, 1.38815358e-01, 2.59068776e-02,-2.50683185e-02,
     4.97388430e-02, 2.31329054e-02,-1.99882071e-02, 1.08161598e-01,
    -6.72881529e-02, 2.94137653e-02,-1.09126316e-02,-8.46930966e-02,
     3.97576913e-02,-3.15117091e-02, 3.57031636e-02, 7.67006129e-02},
   {-1.28837243e-01, 1.59428120e-02, 8.20158273e-02,-3.04559544e-02,
     2.71037742e-02,-1.37653589e-01, 9.49635822e-03, 3.45450565e-02,
     6.18764535e-02, 2.51956619e-02, 8.32382813e-02,-1.06643252e-01,
     9.57148895e-02,-1.03803121e-01,-1.17650695e-01,-8.76154518e-05},
   {-1.85782351e-02, 7.39364177e-02,-2.40667909e-02, 1.06521964e-01,
    -7.56360143e-02, 1.42733872e-01,-9.91746262e-02, 2.09662579e-02,
     8.49431455e-02, 1.35047629e-01, 8.87990668e-02,-5.32915778e-02,
     5.74314175e-03, 8.95042345e-02,-1.29938468e-01, 5.68914153e-02},
   {-3.91889960e-02, 8.37205648e-02,-1.12870283e-01, 7.20999613e-02,
    -2.88833845e-02, 3.95070249e-03, 6.01140708e-02, 9.18542147e-02,
     1.44886255e-01,-1.03053078e-01,-9.86583978e-02,-1.75763950e-01,
    -4.52440754e-02, 1.74107134e-01, 8.08687881e-02, 8.01347345e-02},
   {-4.15097037e-03, 6.10013902e-02, 9.44096893e-02,-3.36738513e-03,
     2.71714348e-02, 7.16569573e-02,-6.95944205e-02,-1.97416320e-02,
    -3.15535478e-02, 6.12534024e-02, 9.61140469e-02, 6.39321208e-02,
    -6.47741556e-02, 2.89607681e-02,-4.42996621e-02, 5.30928262e-02},
   { 1.02638543e-01,-1.13659486e-01, 1.13638721e-01,-6.93139359e-02,
     1.23775162e-01, 8.04968774e-02,-1.72883773e-03,-1.60945162e-01,
     1.21261977e-01,-1.58190966e-01,-1.69030458e-01, 1.08426563e-01,
    -1.70524701e-01,-1.25369474e-01,-1.79894120e-02,-6.11505620e-02},
   {-1.14467509e-01, 1.49622811e-02, 5.20489886e-02, 9.20253918e-02,
    -1.64020270e-01,-4.14636470e-02, 5.53867593e-02, 8.63970146e-02,
     1.86934453e-02, 1.92083064e-02, 5.87028749e-02,-5.81898950e-02,
     2.03872975e-02,-6.43931627e-02,-8.43052045e-02,-5.21099158e-02},
   { 3.78756761e-03,-9.46395695e-02, 3.91603746e-02, 1.13392480e-01,
     5.49967438e-02, 9.33983549e-02,-5.39352335e-02, 1.50412600e-03,
     2.61752196e-02,-4.57677282e-02,-9.12572667e-02,-8.92444775e-02,
    -1.10003985e-01, 5.99934300e-03, 5.33537865e-02, 1.73162483e-02},
   {-1.07440231e-02,-1.88711577e-03,-2.48414800e-02, 5.89061640e-02,
     6.28026426e-02,-1.71288013e-01,-1.78963974e-01, 4.28864993e-02,
     1.42361997e-02,-9.44969803e-02, 7.61950761e-02,-9.95709300e-02,
    -5.77537455e-02,-2.24944968e-02, 5.28546944e-02,-1.45970896e-01}},
                                                                   
  {{-3.90929170e-02,-6.03664368e-02, 1.64539739e-01, 5.40322363e-02,
    -1.03057861e-01, 4.27985862e-02,-4.54644003e-04,-4.88044694e-02,
     1.34080902e-01,-1.14284620e-01,-8.94032046e-02,-1.42082227e-02,
     1.14905715e-01, 1.21329814e-01,-5.85588478e-02, 7.37406034e-03},
   { 3.10726259e-02, 4.32991348e-02,-1.09418608e-01, 6.72583980e-03,
     1.30836153e-02,-6.01793677e-02,-7.13656470e-02,-2.07847636e-02,
     7.66062886e-02,-2.36149784e-02,-8.58474597e-02,-6.91791028e-02,
    -1.78689454e-02, 5.03964722e-02,-2.36388184e-02,-1.85958594e-01},
   {-4.52386662e-02, 3.47768813e-02, 4.53703292e-02, 1.03388689e-01,
     1.30946785e-01, 6.30326495e-02, 5.19067459e-02, 1.04946911e-01,
     9.48062390e-02,-4.61639417e-03, 1.26813436e-02, 1.82142094e-01,
    -7.61667863e-02, 5.71008138e-02, 3.73642966e-02, 3.99808027e-03},
   {-1.05348751e-01, 7.35570863e-02, 8.62993002e-02,-7.51759335e-02,
    -2.95493137e-02,-6.84641451e-02,-5.91272600e-02, 1.19364623e-03,
     2.55131405e-02,-1.01280913e-01,-1.98395163e-01, 2.64533591e-02,
    -1.53784931e-01,-2.89153331e-03, 2.89487094e-02, 6.31495491e-02},
   {-1.03253044e-01, 3.85104269e-02, 1.76922098e-01,-5.14638722e-02,
     1.40201643e-01,-1.42759860e-01, 5.89850731e-02, 6.25481308e-02,
    -1.46554708e-01,-1.74860228e-02, 6.63871467e-02, 1.08085610e-01,
    -1.34683941e-02,-1.11933857e-01,-4.57653916e-03,-1.34165019e-01},
   { 1.50271328e-02,-3.03588938e-02, 1.59002647e-01, 4.64575700e-02,
    -1.87417977e-02,-8.41334462e-02, 5.41682169e-03,-3.38342190e-02,
    -1.83926135e-01, 1.16782494e-01, 6.96646497e-02,-5.92961423e-02,
    -1.31893218e-01, 7.87758082e-02, 1.65832043e-01,-8.20480287e-02},
   { 1.47260015e-03,-1.34675950e-02, 1.14302792e-01, 2.99323704e-02,
     1.21290863e-01, 1.95661590e-01,-1.04485981e-01,-2.13011280e-02,
    -1.05157681e-01,-8.25768858e-02, 1.32033482e-01, 1.43891066e-01,
    -7.79430941e-02, 1.40621126e-01, 3.01302299e-02, 3.43043767e-02},
   {-1.21562958e-01,-1.16417728e-01,-2.94513814e-02, 1.54677242e-01,
    -5.35532087e-02,-9.66302305e-03, 7.98977911e-02, 1.24425285e-01,
    -8.71128663e-02,-3.21466923e-02,-1.37145976e-02,-8.69777724e-02,
     1.72814161e-01, 7.52674788e-02, 9.34420079e-02,-1.55092508e-01},
   {-9.94348824e-02,-4.41454090e-02,-1.26562104e-01,-6.23610951e-02,
    -5.81909828e-02,-2.94266474e-02, 1.13148257e-01, 5.74855767e-02,
     1.08172357e-01,-6.18150495e-02,-1.09317452e-01, 2.77914479e-03,
    -1.80861317e-02, 6.18579471e-03,-1.59086511e-01,-4.62505221e-02},
   {-3.99929546e-02, 1.43802717e-01, 1.07845560e-01,-2.89573930e-02,
     1.63586885e-01, 7.69141736e-03, 1.44360866e-02, 1.14062533e-01,
     5.58374263e-02, 3.95647064e-02, 5.52834291e-03,-7.84871876e-02,
    -8.93390998e-02, 1.25771746e-01, 1.62574127e-01,-5.03618680e-02},
   { 5.90548851e-02, 2.90079229e-02,-1.92861771e-03, 3.63159478e-02,
     2.47119591e-02, 3.02257556e-02,-7.94620737e-02, 2.91358456e-02,
    -5.00888936e-02,-3.81573848e-02, 1.45287782e-01,-8.59298408e-02,
     8.94506052e-02, 2.53275614e-02, 6.36527911e-02,-1.97923407e-02},
   { 9.62225124e-02, 4.77639809e-02,-1.18195206e-01, 5.90788536e-02,
     5.24641648e-02, 1.70400470e-01,-6.72543123e-02,-9.44705680e-02,
    -1.00409880e-01, 4.01719846e-02,-3.74874473e-03,-6.28689770e-03,
     6.53347522e-02,-7.13243112e-02, 5.68669625e-02,-9.11804065e-02},
   {-1.30366310e-01, 2.12658802e-03, 1.15488553e-02,-2.38010790e-02,
    -6.53866976e-02,-4.14371975e-02,-9.71014202e-02,-1.18623242e-01,
     1.85619164e-02,-1.62054390e-01, 6.66350534e-04, 1.69527216e-03,
     9.78575796e-02, 9.11455229e-03, 1.18638590e-01, 2.63242479e-02},
   { 3.79156247e-02,-1.98284879e-01, 1.03455223e-01,-9.68389586e-02,
     5.13027534e-02,-2.17387676e-02, 8.45716819e-02, 5.02682626e-02,
    -6.46790937e-02,-6.68327883e-02,-7.49820024e-02, 1.45094916e-01,
    -1.63155392e-01, 1.64429516e-01,-1.10390909e-01,-1.66229561e-01},
   { 2.52324175e-02, 1.01754554e-02,-4.30568494e-02,-8.64677653e-02,
    -6.05213754e-02,-1.03182212e-01, 5.31557389e-02,-1.84201915e-02,
     1.43966809e-01, 6.15529120e-02, 5.11641800e-02, 1.12074830e-01,
     2.98289601e-02,-1.80607736e-01,-1.04751252e-01, 3.27416100e-02},
   { 3.48221920e-02,-8.13618302e-03,-4.87515889e-02,-1.85007025e-02,
    -5.29587455e-02,-5.21144830e-02, 2.71934690e-03,-1.39323711e-01,
     1.81334481e-01, 1.16345324e-01, 8.74541774e-02,-6.58264905e-02,
    -1.21163853e-01,-8.64096358e-02,-1.29718110e-01,-1.62761152e-01},
   { 4.50077802e-02, 7.64349028e-02, 5.91581352e-02,-1.17746659e-01,
    -3.04951388e-02, 4.15505655e-02,-3.95136140e-02, 8.78848042e-03,
    -1.33218793e-02,-5.01308730e-03,-1.93775054e-02,-1.09956622e-01,
     2.05698665e-02, 8.03249925e-02, 1.28775120e-01,-8.52904916e-02},
   {-1.68490615e-02,-8.91554803e-02, 6.98911548e-02,-1.70352533e-01,
    -4.04261537e-02, 8.84061158e-02,-3.33565474e-02,-1.37230679e-01,
    -1.42597556e-01,-2.64290068e-02,-1.78245008e-01,-1.25625506e-02,
     3.78493369e-02,-3.67845036e-02,-5.36966100e-02,-3.95571161e-03},
   {-1.36047632e-01, 6.02395646e-03,-1.49420304e-02,-7.76578784e-02,
    -1.02229662e-01, 8.67152289e-02,-2.07845420e-02, 4.52475473e-02,
     3.04900110e-02,-1.03515707e-01,-1.88607853e-02,-1.55547529e-01,
     1.79150477e-01, 1.12911118e-02, 9.49315950e-02,-1.35863498e-01},
   {-1.92645267e-02,-1.09985791e-01, 1.34968475e-01, 4.19256650e-02,
     9.43539962e-02, 5.24759926e-02, 1.07678391e-01,-2.25509629e-02,
     1.75208479e-01, 1.10609278e-01,-3.37132439e-02, 1.27878442e-01,
    -1.36593105e-02, 9.05140415e-02, 1.78636257e-02, 1.47698253e-01},
   { 3.03117395e-03, 1.65912464e-01, 7.37852529e-02, 5.28060133e-03,
    -1.39603289e-02,-1.18623741e-01, 1.63744986e-01, 6.82329908e-02,
     2.18614973e-02, 5.37050068e-02, 8.36835578e-02,-7.15410858e-02,
     1.70709193e-01,-6.61262497e-02, 1.40228450e-01, 1.15994133e-01},
   {-9.11380425e-02, 4.88587320e-02, 5.52571304e-02,-3.73133495e-02,
    -1.45124882e-01, 7.29497671e-02, 1.16632387e-01,-1.85495317e-01,
     1.17285639e-01,-1.75655246e-01, 2.20147725e-02,-4.99014044e-03,
     1.10806197e-01, 4.24484722e-03, 1.03727445e-01,-1.00458667e-01},
   { 1.76801104e-02, 9.99078527e-03, 3.71933952e-02, 5.05118407e-02,
     4.01870757e-02,-2.05646437e-02, 4.40664776e-03,-3.75044756e-02,
     1.36105582e-01, 6.50852397e-02, 1.49565041e-01, 5.40912636e-02,
     8.66590366e-02,-1.93212524e-01,-3.94273698e-02,-7.02914968e-02},
   {-1.30996227e-01, 6.40242249e-02, 7.12628588e-02,-3.79643887e-02,
     8.33000243e-02, 7.94538110e-02, 5.13088182e-02, 5.76342493e-02,
    -6.22356981e-02,-2.15071719e-02, 7.41241220e-03,-7.34060630e-02,
    -7.44338259e-02,-1.23582028e-01,-2.63842940e-02, 6.85728267e-02},
   { 8.98569748e-02, 5.57441497e-03,-1.17699325e-01, 1.34837208e-02,
     4.23972495e-02,-1.00312512e-02, 3.37040722e-02, 4.11970131e-02,
    -8.25131219e-03, 1.52327657e-01,-1.67768132e-02,-1.92478806e-01,
    -1.56948045e-01,-2.02564418e-01,-1.59363315e-01,-9.13984254e-02},
   { 1.40854493e-01,-1.16352834e-01, 7.79413730e-02, 1.82405934e-02,
    -1.06880635e-01, 3.62497382e-03,-4.77789566e-02, 6.49802983e-02,
    -5.75975329e-02, 1.21545628e-01,-7.20309839e-02,-8.58939812e-02,
    -7.75589570e-02, 1.25042731e-02,-5.28476909e-02,-5.49957529e-02},
   { 2.65993737e-02, 1.39165610e-01, 2.03521997e-02,-4.63164784e-02,
     5.30508626e-03, 1.27608061e-01, 6.54196180e-03, 1.26160011e-01,
    -1.69381723e-01, 4.33356352e-02,-1.58782005e-01,-6.15452118e-02,
    -6.25224933e-02,-1.47649184e-01, 3.33576612e-02,-1.00586735e-01},
   {-3.72301713e-02,-1.48934767e-01, 5.07081896e-02,-1.44242093e-01,
    -7.14864954e-02,-6.60267696e-02,-3.13159935e-02, 1.40236661e-01,
     8.55211318e-02,-8.31003636e-02, 1.64878480e-02, 5.19480221e-02,
    -1.24418169e-01, 8.90109017e-02,-9.47606117e-02,-1.08817369e-02},
   {-2.73521915e-02, 3.44148488e-03,-3.68623659e-02,-1.80583186e-02,
     9.84419212e-02, 2.81125959e-02, 4.51544896e-02, 8.44308883e-02,
    -7.55715519e-02,-1.02886617e-01,-1.51915044e-01, 8.34859312e-02,
    -1.34740409e-03,-3.88879478e-02,-1.35902554e-01,-9.36568305e-02},
   { 7.82498047e-02,-2.66594086e-02, 2.49048579e-03, 5.00064641e-02,
     5.56766242e-02, 5.87928519e-02,-1.07179303e-02, 2.10269429e-02,
     4.05963324e-02, 1.33280933e-01, 1.72713742e-01,-4.07339260e-02,
     1.26423175e-02,-3.20505425e-02, 1.69535369e-01,-9.55037326e-02},
   {-6.70441389e-02,-7.92908203e-03, 1.48448437e-01,-5.07159717e-03,
    -4.18147445e-02, 2.48389295e-03,-7.66716758e-03, 1.59454554e-01,
     7.63082057e-02, 3.92427621e-03, 2.96339300e-02, 1.68193970e-02,
    -7.73571478e-03,-8.50170404e-02,-1.39134824e-01, 8.82438011e-03},
   {-1.00477068e-02, 4.29968648e-02,-1.66010842e-01,-2.70772371e-02,
    -3.38717774e-02, 6.19951636e-02, 1.19623959e-01, 3.35583393e-03,
     2.07885578e-02,-9.02278200e-02, 8.87510553e-02, 6.86007887e-02,
    -1.43741979e-03, 5.94045185e-02, 5.27732261e-02, 1.14263676e-01}}},
                                                                   
                                                                   
 {{{-2.19476651e-02, 1.05360970e-02, 1.99872851e-01, 1.32020056e-01,
     4.76851873e-02,-2.99416371e-02, 2.79644243e-02,-2.07579285e-01,
     2.23693624e-02, 9.17429384e-03,-1.19550641e-04, 1.78383276e-01,
     6.39535114e-02, 1.62238240e-01, 1.88884437e-02, 1.34588569e-01},
   {-1.27408668e-01, 1.44417122e-01,-5.91821922e-03,-7.90860951e-02,
    -7.30298534e-02, 7.00400695e-02, 3.00240656e-03,-2.60312594e-02,
    -3.19602117e-02,-6.42495602e-02, 1.60695523e-01, 4.26407857e-03,
    -7.82546774e-03,-2.76755039e-02, 4.56931852e-02, 9.05206054e-02},
   { 4.54333983e-03, 4.50374074e-02, 1.05624367e-02, 7.29945749e-02,
     9.30713490e-02,-7.70091787e-02,-4.77898456e-02,-1.46995902e-01,
    -1.29757524e-01, 9.38456729e-02,-1.41190365e-01,-1.44453436e-01,
    -1.09638713e-01,-4.20768857e-02,-9.15740207e-02,-1.33146090e-03},
   {-1.37309954e-01,-1.91822592e-02, 1.77202553e-01, 2.54779384e-02,
     8.69113058e-02, 3.87928300e-02, 3.03033423e-02, 4.58231829e-02,
    -1.70824081e-01, 6.30499609e-03,-1.52450120e-02,-9.44406316e-02,
     6.14529289e-02,-5.04522398e-02,-1.69974100e-02,-1.14159539e-01},
   {-1.51783198e-01, 2.70198565e-02,-5.23677692e-02, 1.27767712e-01,
     7.80294761e-02, 2.46020146e-02,-3.08339726e-02,-4.22538854e-02,
     8.57467800e-02,-3.55773121e-02, 1.88511744e-01, 4.45221029e-02,
     1.21396944e-01,-6.14218675e-02,-3.87875102e-02, 7.83182774e-03},
   {-5.93085028e-02,-1.70596868e-01,-6.68299105e-03,-2.09237207e-02,
    -1.92155346e-01,-1.58280395e-02,-1.52845994e-01, 7.10318685e-02,
    -6.52571768e-02,-8.48894939e-02,-7.94122070e-02, 1.14279568e-01,
    -1.31882593e-01,-9.76682678e-02,-3.02679315e-02,-1.82275638e-01},
   {-1.45028729e-03, 1.08814970e-01,-4.42729294e-02,-1.37617916e-01,
    -8.12803581e-02,-1.55264080e-01, 9.96904299e-02, 9.80655625e-02,
    -6.64128363e-02,-9.92157906e-02,-1.59813210e-01, 1.19248191e-02,
     1.05382331e-01,-2.64591128e-02,-4.74759042e-02,-1.88978106e-01},
   {-7.84474239e-02, 1.64496839e-01,-3.26309092e-02, 6.64579868e-02,
    -5.06898686e-02, 2.83864215e-02, 1.66627876e-02, 1.13490775e-01,
     2.97037251e-02, 8.65185410e-02, 7.61747593e-03, 3.95827405e-02,
    -1.77368701e-01, 7.14694932e-02, 1.94653915e-03, 2.98277102e-02},
   {-2.89744022e-03, 1.72841221e-01, 3.74577269e-02,-1.07476683e-02,
    -1.00886531e-01,-1.43178463e-01,-8.23911428e-02,-7.95066431e-02,
    -9.91595164e-02, 1.60240345e-02,-7.38473982e-02, 3.26961093e-02,
    -1.03066720e-01,-9.15369540e-02, 4.52662297e-02, 4.44255844e-02},
   { 2.60142963e-02, 1.93588324e-02,-6.37246445e-02,-1.43746799e-02,
     1.18700288e-01, 2.81628780e-02, 4.99537550e-02, 1.11614995e-01,
    -7.17411637e-02,-4.56992649e-02,-5.20688333e-02, 8.33200961e-02,
     2.21258458e-02, 1.35938711e-02,-1.33046091e-01, 5.33515699e-02},
   { 1.07475773e-01,-1.04566991e-01,-1.01134516e-01, 6.53554648e-02,
     1.39460750e-02, 8.83604810e-02, 1.13860473e-01,-5.23515902e-02,
     1.65215880e-01, 1.29866570e-01,-1.26029402e-01,-1.72683567e-01,
     5.87904379e-02, 8.81791562e-02, 9.25347805e-02,-1.44966960e-01},
   {-2.75668688e-02, 1.74921244e-01,-1.77634899e-02,-4.60153649e-04,
     6.47178739e-02, 1.74556430e-02, 9.80145708e-02,-1.64001033e-01,
    -3.92719321e-02, 2.48002857e-02, 1.13663808e-01,-1.43144593e-01,
    -3.75171825e-02, 2.88500991e-02,-5.21913804e-02, 3.43241766e-02},
   { 1.14155589e-02, 9.09693614e-02, 7.18883574e-02,-4.77670431e-02,
     4.09977026e-02,-4.64120395e-02,-1.55459493e-01, 8.60832706e-02,
     5.07618720e-03, 1.01172857e-01, 1.10343225e-01, 1.61536157e-01,
     9.05669183e-02, 3.84893455e-02,-7.34388977e-02,-5.77584282e-03},
   { 6.54895380e-02,-1.35521427e-01,-6.64429814e-02, 1.25409842e-01,
    -4.53529246e-02, 6.66796193e-02,-9.50829685e-02,-4.41456214e-02,
    -1.00391760e-01, 1.11470908e-01, 2.99295667e-03, 8.58672857e-02,
    -3.99719849e-02,-8.75807777e-02,-5.51727712e-02,-1.83547940e-02},
   {-2.73690987e-02, 3.62363420e-02,-3.51085439e-02, 1.57624424e-01,
    -8.49010125e-02, 2.10593380e-02,-1.02191009e-01,-9.16807428e-02,
    -4.12948094e-02, 5.96517809e-02,-1.23194180e-01, 3.10524795e-02,
     1.54108420e-01,-1.46514460e-01, 8.84291083e-02,-8.43553916e-02},
   {-1.88712236e-02,-4.15194593e-02, 3.49183683e-03, 2.64758579e-02,
     1.45507418e-02,-4.11165655e-02,-1.05426311e-01, 7.01123178e-02,
    -3.45570743e-02, 3.34246308e-02,-5.59664555e-02, 1.02301635e-01,
    -1.23940840e-01, 1.30675077e-01, 1.42736048e-01, 6.95594624e-02},
   {-6.72215968e-02, 3.13442238e-02, 6.05138801e-02,-8.37534443e-02,
    -3.20467874e-02,-1.31820992e-01, 1.70710191e-01,-2.95456089e-02,
     3.63188460e-02,-1.61170542e-01,-1.54540399e-02, 1.19999787e-02,
     2.00851094e-02,-7.06783086e-02, 6.21995851e-02,-3.88011076e-02},
   {-1.03460643e-02,-3.38812172e-02,-5.63524812e-02, 1.71461776e-01,
    -1.34295039e-02, 1.10258251e-01, 4.63245530e-03,-1.37720272e-01,
    -6.77520260e-02, 9.61031541e-02,-1.02065792e-02,-1.90776121e-02,
     7.47916773e-02, 1.87402278e-01, 7.01024244e-03, 3.73395719e-02},
   { 1.49166062e-01, 5.95425107e-02,-1.33394793e-01,-5.42190112e-02,
     1.04029290e-01, 5.11431023e-02, 1.26713917e-01, 4.48436402e-02,
     8.23900476e-02, 6.23051114e-02, 5.54157495e-02,-2.92978771e-02,
     1.65025964e-01, 2.02385765e-02,-6.93402439e-02,-5.95664978e-02},
   {-1.28441274e-01, 7.92973340e-02,-1.13898396e-01, 1.93546996e-01,
    -1.29580200e-01,-6.11785203e-02,-4.51036096e-02, 8.19890574e-02,
    -3.57397199e-02,-2.53750831e-02,-2.96305232e-02, 7.37197995e-02,
     1.60925850e-01, 6.07864931e-02,-7.85128772e-03, 1.10467665e-01},
   {-4.45850492e-02, 8.87268595e-03,-5.09500280e-02,-4.81263660e-02,
     2.42749006e-02, 6.24829233e-02,-1.14644557e-01, 2.73577906e-02,
     1.38165504e-01, 1.72060564e-01,-1.44056842e-01, 1.51483417e-01,
     1.70564055e-01,-8.15435424e-02,-7.65104592e-02, 8.56782943e-02},
   {-7.03461468e-02, 1.06575089e-02, 1.61106229e-01,-2.02647373e-02,
    -6.57987827e-03, 7.71506056e-02,-4.01008017e-02,-8.19777697e-02,
     1.16871754e-02,-6.44172505e-02, 7.62615949e-02, 2.17484664e-02,
    -1.03514820e-01,-8.89707059e-02,-1.26329213e-01, 9.70663782e-03},
   { 8.48640352e-02, 4.93330844e-02,-4.57076356e-02,-6.93445057e-02,
    -2.43661702e-02, 1.83644667e-02, 1.20238580e-01,-1.13905547e-02,
     9.70469266e-02, 8.04692060e-02, 1.13368616e-01,-7.06956908e-02,
    -5.68333492e-02, 9.56432894e-02, 1.11320496e-01, 9.97536853e-02},
   {-8.26205164e-02, 8.90165102e-03, 1.13477804e-01,-2.01905947e-02,
    -4.80446965e-02,-1.29301846e-01, 9.75970030e-02, 3.85870622e-03,
     5.15486374e-02, 4.75637130e-02,-4.71730381e-02,-6.67599887e-02,
     3.46160159e-02, 1.73718691e-01,-1.72687143e-01, 8.69558193e-03},
   {-2.07074638e-02,-8.07179138e-02, 7.28559718e-02, 2.59861648e-02,
    -2.07618717e-02, 6.39089793e-02,-7.86263347e-02, 8.18345472e-02,
    -8.37721154e-02, 1.69731736e-01, 7.48222992e-02, 6.00668080e-02,
    -6.54938072e-03,-1.62643567e-01, 7.78057752e-03, 4.92506474e-02},
   {-8.96314625e-03, 7.41102025e-02, 2.97257304e-02, 7.73775727e-02,
    -3.77175473e-02,-1.72107458e-01,-1.38696423e-02, 9.80065316e-02,
    -7.51054510e-02, 1.87165439e-02, 1.10860460e-01,-8.03520754e-02,
    -7.39108101e-02, 1.03109859e-01, 5.33843264e-02, 1.57856401e-02},
   {-9.23646390e-02, 1.81173738e-02,-3.38569693e-02,-1.18694998e-01,
    -7.43346438e-02,-8.24472830e-02,-8.91370848e-02, 2.16233451e-02,
    -1.62317187e-01, 1.27243966e-01,-4.14119400e-02,-8.66053253e-02,
     2.30245572e-02,-4.76496667e-02, 1.00461245e-01,-1.33658182e-02},
   { 5.36348112e-02, 6.15329482e-02, 1.42238691e-01,-3.63228880e-02,
     3.84026989e-02, 9.50266123e-02,-4.99304160e-02,-1.45604178e-01,
     7.49213807e-03, 1.08970413e-02, 5.50708100e-02,-6.91299066e-02,
     5.33234887e-02,-4.53199819e-02,-2.97411177e-02, 4.01727892e-02},
   {-3.52790169e-02,-1.01249389e-01, 5.01057506e-02,-4.99697700e-02,
    -2.23244801e-02, 1.69110787e-03, 1.69224620e-01,-1.23065688e-01,
     1.57655984e-01,-4.54119332e-02,-4.60142866e-02, 1.26826212e-01,
     2.38191038e-02,-8.98548067e-02, 1.14161618e-01,-1.41282519e-02},
   {-4.39437814e-02, 1.26022017e-02,-8.44454169e-02, 4.12014723e-02,
     2.07948610e-01,-3.10301818e-02, 9.28967167e-03,-1.05011286e-02,
     9.69252363e-02,-1.22409903e-01,-3.78762446e-02,-8.53360817e-02,
    -8.51430967e-02,-2.33624075e-02,-9.27563310e-02,-2.95680873e-02},
   { 3.42282280e-02,-3.46943215e-02,-9.49566662e-02,-1.27722383e-01,
    -9.55754984e-03, 1.64431445e-02, 4.59871069e-02, 8.78545195e-02,
     1.11977020e-02,-2.67110150e-02, 2.13223733e-02,-1.35972559e-01,
    -6.50449097e-02,-3.20175961e-02, 3.70773301e-02,-6.03535548e-02},
   { 1.59672454e-01,-2.51646191e-02,-9.31957215e-02,-1.50034294e-01,
    -1.20240137e-01,-1.53504059e-01, 4.00590673e-02, 1.01827821e-02,
    -1.08294323e-01,-6.42146021e-02, 2.16600765e-02,-1.30165413e-01,
     1.42565697e-01,-1.17945999e-01, 3.55835967e-02,-9.76350978e-02}},
                                                                   
  {{-1.06726848e-01,-8.38858709e-02,-1.41104758e-01,-4.88634557e-02,
     1.73036695e-01, 8.97784308e-02,-6.53570369e-02,-6.82231784e-02,
    -5.72218001e-02, 1.33101434e-01,-1.44266412e-01, 1.01139627e-01,
     1.83039054e-01,-5.47453901e-03, 7.59883448e-02, 9.54550728e-02},
   { 1.15177363e-01, 2.84178238e-02, 1.35615990e-01, 8.85697007e-02,
     8.14056024e-02,-1.37011409e-01, 1.29159197e-01, 1.00084014e-01,
    -1.15072012e-01,-8.12475160e-02,-1.79704204e-01, 3.13184457e-04,
     4.44039926e-02,-9.86972731e-03,-3.17980908e-02,-2.87345331e-02},
   { 1.14938773e-01,-5.06939590e-02, 4.13056463e-02,-5.37675805e-02,
     1.08190365e-01, 8.75264928e-02,-4.24811840e-02, 3.11103240e-02,
     1.81018114e-01, 6.17101835e-03,-9.88546163e-02,-1.53820276e-01,
     5.02471104e-02, 7.34881759e-02,-2.80290414e-02, 5.32881282e-02},
   {-3.67994606e-02,-1.44307315e-01,-6.02219403e-02, 5.85962310e-02,
     3.18978429e-02,-7.45023116e-02, 1.64287630e-02, 1.50572792e-01,
     1.05135188e-01,-1.23823598e-01, 1.50769532e-01,-8.16214681e-02,
    -5.45713454e-02, 4.65041783e-04,-2.87318807e-02,-9.85444859e-02},
   {-1.06070675e-01,-2.17847265e-02, 2.80838348e-02, 9.00277272e-02,
    -7.26673976e-02,-1.54733211e-01, 3.90821695e-02, 1.88416377e-01,
    -3.15235518e-02, 3.37958708e-02, 1.07817180e-01, 9.03652236e-02,
     9.85611379e-02,-1.64307296e-01, 2.32079122e-02, 4.63574566e-02},
   {-1.71059668e-02,-1.44481912e-01,-1.88292079e-02,-2.00006738e-02,
    -1.64945692e-01,-5.57427220e-02,-1.33934289e-01, 1.96648747e-01,
     1.37206810e-02,-1.00506410e-01, 1.19355187e-01,-1.65036559e-01,
    -5.43271750e-02, 7.18746111e-02, 7.03164786e-02, 1.14115313e-01},
   { 1.48545906e-01,-1.02808893e-01,-1.00344177e-02,-2.04543676e-02,
     1.75071836e-01, 1.36874244e-01, 1.04806520e-01, 3.47605608e-02,
    -2.69911960e-02,-5.43355308e-02, 4.69943732e-02,-2.12546741e-03,
    -5.40998355e-02,-4.08983007e-02, 2.49320474e-02, 5.57486638e-02},
   {-9.78791416e-02,-1.10178098e-01,-7.90272206e-02,-9.64307263e-02,
     6.97245225e-02, 9.44414362e-02, 1.38267264e-01, 6.42160773e-02,
    -1.97988167e-01,-1.01628797e-02, 9.21801478e-02,-9.63824894e-03,
     4.66380194e-02,-4.42188308e-02,-2.57804766e-02, 3.71667929e-02},
   { 7.30960667e-02,-1.37008995e-01,-1.41916320e-01, 9.92070287e-02,
     6.31913766e-02, 5.94063336e-03, 7.72301853e-02,-9.38907545e-03,
     1.70067266e-01, 6.30324101e-03,-1.74887776e-01,-8.41452405e-02,
     9.29978713e-02, 6.29858207e-03, 8.13810006e-02,-5.74969724e-02},
   {-1.19519047e-01, 5.32077774e-02, 2.82069203e-02, 1.47655129e-01,
     8.73076320e-02, 1.20104467e-02, 1.04344569e-01, 8.28282982e-02,
     9.71154049e-02, 3.44979251e-03, 1.43749326e-01, 1.06902532e-01,
     2.53970698e-02,-1.35090142e-01,-5.54082915e-02, 2.27617137e-02},
   { 1.88602805e-01,-1.80570990e-01, 1.90408602e-01,-5.04484922e-02,
     2.73005851e-03,-9.27549414e-03,-3.89041938e-02, 7.14136809e-02,
    -2.46049482e-02, 1.87924623e-01,-1.92953814e-02,-7.88958073e-02,
    -1.10452309e-01,-3.22262645e-02, 4.12325449e-02, 7.62007311e-02},
   { 1.62786648e-01, 1.14391692e-01, 4.97438647e-02,-1.14679001e-01,
    -6.13783160e-03, 1.60060763e-01,-1.84328750e-01, 2.66283844e-02,
    -3.22187063e-03, 2.92135794e-02,-1.05144009e-01,-6.83474243e-02,
    -3.58860902e-02,-1.94331724e-02,-1.51952757e-02,-1.33393863e-02},
   { 3.90432738e-02, 7.64903575e-02, 5.29468358e-02, 1.14353195e-01,
     2.21819151e-02, 9.47794467e-02,-7.28911757e-02,-1.00545855e-02,
    -6.19640835e-02,-6.63907453e-02,-1.17236711e-01, 3.76906954e-02,
     1.82910748e-02, 1.48103654e-01,-1.83073521e-01, 5.72376922e-02},
   {-8.40270668e-02, 4.47578263e-03, 6.85991719e-02, 6.85240999e-02,
    -1.01073142e-02, 4.42994796e-02,-1.78575199e-02, 5.61180189e-02,
    -1.04465552e-01, 4.97228429e-02,-9.96891409e-02, 3.46774720e-02,
     4.15627398e-02,-7.13026449e-02, 9.33558345e-02,-3.27424668e-02},
   {-2.93682124e-02, 1.71242550e-01,-4.28689681e-02, 1.16312830e-02,
    -8.00771341e-02, 1.01396956e-01,-1.88816693e-02, 2.57233232e-02,
    -9.63629708e-02,-5.13351038e-02,-1.74107969e-01, 5.07026203e-02,
     1.53504893e-01,-3.78522724e-02, 1.66180059e-02, 1.38610695e-02},
   { 8.91189948e-02,-1.65859625e-01, 9.19715464e-02,-6.31999550e-03,
     1.65689141e-01, 7.49203041e-02,-1.33708015e-01,-3.50612402e-02,
     6.69762269e-02,-3.50080983e-04,-8.15358460e-02, 6.06563985e-02,
     1.06790811e-01, 9.60001424e-02,-9.74619463e-02,-1.21797407e-02},
   { 1.28496036e-01,-6.15528971e-02,-1.68622211e-01, 7.06103072e-02,
     4.25373539e-02, 1.29199907e-01,-4.80877347e-02, 6.42214939e-02,
    -9.72746313e-02, 8.13002586e-02,-4.13108170e-02, 4.71942760e-02,
    -7.08226860e-02, 1.55340105e-01, 1.30304486e-01, 2.29235049e-02},
   {-7.98031688e-02,-2.80542094e-02,-9.19798538e-02,-1.50023609e-01,
     8.15154761e-02,-1.07638329e-01,-6.90883920e-02, 1.33072004e-01,
     8.89789537e-02, 6.30375817e-02,-5.28092645e-02,-5.31788059e-02,
    -4.74977819e-03, 3.60500328e-02,-1.39859989e-01,-8.61126333e-02},
   { 1.08225111e-04, 7.78094232e-02,-5.66515662e-02,-4.95385490e-02,
    -1.67370941e-02, 4.79409192e-03,-1.71408594e-01,-2.87956260e-02,
     1.31687671e-01,-1.29470468e-01,-1.96218967e-01,-1.20434843e-01,
     1.89040810e-01, 4.21432443e-02,-1.44752534e-02,-2.77067740e-02},
   { 3.61840688e-02,-1.12965554e-01, 1.01543188e-01, 2.12763492e-02,
    -1.40537918e-01,-4.14063744e-02, 1.48707060e-02,-1.47552535e-01,
     9.25830007e-02,-1.47939017e-02, 8.35640915e-03, 1.03325449e-01,
    -8.28203857e-02, 1.42279770e-02,-4.43751737e-02, 7.12550357e-02},
   { 5.60249873e-02,-1.57118484e-01,-4.50672619e-02, 4.61809337e-02,
    -1.65805921e-01, 8.90913084e-02,-1.77904032e-02,-6.58679660e-03,
    -3.86275835e-02,-1.61921084e-01,-7.47910812e-02,-1.38290763e-01,
    -9.40443501e-02,-8.53670109e-03, 9.17597860e-03, 4.71125124e-03},
   { 3.74385081e-02, 1.19711801e-01, 1.59834221e-01, 3.83311510e-02,
    -1.22629441e-01,-8.37454498e-02, 1.59512414e-03,-2.63729040e-02,
     1.05892368e-01,-1.85666233e-02,-1.27178237e-01,-7.44166002e-02,
     4.96605448e-02, 5.32076508e-02,-1.57744903e-02, 7.71044046e-02},
   {-2.12991517e-02, 1.44806027e-01, 4.47782502e-02, 8.37561414e-02,
    -5.33231497e-02,-8.22731778e-02, 1.58626840e-01,-1.04356883e-02,
     1.32705510e-01, 4.68220860e-02,-1.27523825e-01, 5.13892341e-03,
    -2.20979620e-02, 8.62971544e-02, 8.27970654e-02, 2.25325357e-02},
   {-1.44715950e-01,-8.61046091e-02, 7.61972219e-02,-8.44434835e-03,
    -1.30910710e-01, 1.02564380e-01,-4.72874530e-02,-6.63453713e-02,
    -1.97553471e-01, 1.11316606e-01, 2.15580501e-02,-2.13309806e-02,
     1.26359165e-01,-3.32927741e-02,-5.77081889e-02, 5.09595834e-02},
   {-1.02622725e-01,-2.01731637e-01, 9.50711519e-02,-1.01438299e-01,
    -6.07546419e-02,-3.76391523e-02, 9.07476470e-02,-5.01834080e-02,
    -7.87639171e-02, 4.36305553e-02, 1.43350407e-01,-8.18485916e-02,
     7.42173493e-02,-2.51960382e-02, 1.07173219e-01, 1.37020439e-01},
   { 3.36161517e-02, 6.11139908e-02,-1.51914448e-01,-2.49881204e-02,
     1.82316862e-02, 1.04256012e-01, 1.62897259e-01,-3.89205590e-02,
    -6.92372546e-02, 9.84833166e-02, 2.02354461e-01,-5.12888692e-02,
    -1.89962480e-02,-4.66114171e-02, 8.42778534e-02, 6.68610781e-02},
   {-8.01712424e-02,-2.77393195e-03, 3.63371335e-02, 7.58665279e-02,
     1.26629593e-02,-8.64303857e-02, 8.98270383e-02, 3.95714156e-02,
    -1.03009216e-01, 6.38236403e-02,-8.39278474e-02,-3.93624343e-02,
     9.58557352e-02,-9.79975164e-02, 2.49834973e-02,-9.54672247e-02},
   { 1.41030475e-02,-1.00681752e-01,-5.86070605e-02,-1.19564712e-01,
     1.58990785e-01,-1.68883026e-01,-8.79730508e-02,-2.68420689e-02,
     1.71263352e-01,-4.52327617e-02, 1.54959783e-01,-1.07511580e-01,
     6.50047213e-02, 1.80523589e-01, 7.86997154e-02,-7.99317136e-02},
   { 1.73898354e-01,-8.90361518e-02,-2.38731727e-02,-2.06920803e-02,
    -5.93918115e-02, 7.61927962e-02, 3.77040841e-02,-1.10633291e-01,
    -8.08370486e-02,-4.13809791e-02,-1.65182780e-02,-5.88922501e-02,
     6.23328127e-02, 1.26941964e-01,-6.19314471e-03,-8.97170007e-02},
   { 1.40076667e-01,-1.45585805e-01, 4.73907497e-03, 1.73640177e-01,
    -1.58187672e-01,-2.07187235e-02,-5.03322557e-02, 2.87119895e-02,
     1.00203566e-01,-1.12755314e-01, 8.89098197e-02,-1.87637322e-02,
     1.76189110e-01, 7.12789968e-03, 1.49223462e-01,-2.81605441e-02},
   {-1.68970681e-03,-4.95385975e-02, 9.73532125e-02, 3.48868705e-02,
     3.85918058e-02, 8.72734264e-02,-3.06134187e-02,-1.32785603e-01,
     8.50150187e-04,-1.38359014e-02, 2.36391909e-02, 6.12900332e-02,
    -5.30066378e-02, 7.27242827e-02, 1.68212548e-01, 1.62963077e-01},
   { 8.73243064e-02, 9.47185084e-02, 2.74742604e-04,-8.80909562e-02,
    -4.36774194e-02, 4.93857898e-02,-1.85835168e-01, 1.06073841e-01,
    -7.57984072e-02, 4.84681278e-02,-1.19101917e-02, 7.38281235e-02,
     1.38476774e-01,-8.04558620e-02, 1.77790612e-01,-8.58092606e-02}},
                                                                   
  {{ 9.68960375e-02,-6.60097878e-03, 2.91420259e-02,-1.31298289e-01,
    -6.04738630e-02,-4.30256873e-02,-2.96050385e-02,-1.49458170e-01,
    -3.87788797e-03, 1.77036256e-01,-1.98786631e-02, 5.09125087e-03,
     5.61575107e-02,-6.41148724e-03, 7.38383830e-02,-1.51937217e-01},
   {-7.63164833e-02,-8.68252814e-02, 1.18432373e-01,-1.65126413e-01,
     4.14749049e-02,-1.20066032e-01, 3.10812574e-02,-8.68014693e-02,
     9.38669443e-02, 8.48082080e-02, 7.14353397e-02,-1.78809136e-01,
     4.29671146e-02,-2.19026376e-02,-4.75495011e-02, 2.38021873e-02},
   { 7.12028965e-02, 4.51569259e-02,-1.89713150e-01, 1.05379656e-01,
     3.27240452e-02, 1.00985728e-01,-6.30369335e-02, 1.78529061e-02,
     3.38162072e-02,-1.63728017e-02,-6.58617467e-02,-6.31543389e-03,
    -1.15115441e-01,-1.08094076e-02, 1.80263817e-01, 7.05456063e-02},
   { 1.69149097e-02,-3.10140960e-02, 2.80823354e-02, 9.61808190e-02,
    -1.37500847e-02, 3.82637903e-02, 1.53481774e-02,-5.77672906e-02,
    -1.39233023e-01, 3.70771848e-02,-8.11899379e-02,-4.36119474e-02,
    -1.86720639e-01, 4.66430746e-02,-2.02616379e-01, 1.36657283e-01},
   { 1.53007239e-01, 2.55062133e-02,-1.75319575e-02, 1.17621548e-01,
    -9.74198058e-03, 1.00136168e-01,-4.92116250e-02,-8.25821757e-02,
     3.12283617e-02,-1.37718976e-01, 1.89758942e-01,-1.70103069e-02,
     1.45734876e-01,-6.32758960e-02,-8.81765112e-02,-1.38099372e-01},
   { 4.22478430e-02,-1.40029769e-02, 1.99909598e-01, 1.70511547e-02,
     3.32015147e-03, 3.91035564e-02, 1.75605834e-01, 6.55384287e-02,
     1.73269548e-02,-1.00363821e-01, 8.66755918e-02, 1.18543230e-01,
     2.78986385e-03,-6.02909438e-02,-8.75159353e-02, 6.74146414e-02},
   { 1.04662716e-01,-1.26370251e-01, 3.00477445e-02,-3.09522357e-02,
    -1.78839356e-01, 9.57988799e-02,-3.76307331e-02, 1.30175680e-01,
    -5.27613759e-02,-4.59227711e-02, 4.59863544e-02,-1.95193008e-01,
     5.94900036e-03, 1.74638182e-01, 4.21434343e-02, 4.27927598e-02},
   { 1.85113959e-02,-8.53160024e-02, 5.30910632e-03,-4.25776727e-02,
    -9.54908654e-02,-2.85647120e-02, 9.59391743e-02, 3.06794308e-02,
    -5.59863597e-02,-1.14043511e-01,-1.38126360e-02, 5.85577972e-02,
     1.31067067e-01, 7.01191500e-02,-1.28149986e-01,-1.06146380e-01},
   {-5.10730371e-02,-3.89544331e-02, 1.42896548e-01,-1.28518954e-01,
     1.59351587e-01,-8.33057389e-02, 2.81988662e-02, 1.24292843e-01,
    -8.53123292e-02,-1.00243445e-02,-1.62837207e-01, 1.82921946e-01,
     5.07977121e-02, 1.29418954e-01, 8.01890716e-02, 2.64140032e-02},
   {-4.27647196e-02,-2.82215271e-02, 9.56436899e-03,-9.01496187e-02,
    -2.68351026e-02, 7.94280097e-02, 5.26342243e-02,-1.20567501e-01,
    -6.81220368e-02,-1.27981275e-01,-1.55424997e-01,-1.17242627e-01,
    -5.93470894e-02, 6.67392537e-02,-1.10690415e-01, 6.01623952e-02},
   {-5.81937693e-02, 2.72326004e-02, 9.01454836e-02,-1.00580990e-01,
    -5.57006523e-03, 2.11816169e-02, 1.37872025e-01,-1.05747305e-01,
     2.58628055e-02, 1.14300422e-01,-1.26960501e-01,-2.74812728e-02,
     8.75899289e-03,-1.51663586e-01, 3.63729857e-02,-1.15921691e-01},
   {-1.43751549e-02,-1.22298729e-02, 5.28778173e-02,-6.98986202e-02,
     6.33688644e-02,-2.96698529e-02, 1.17056176e-01,-7.03932792e-02,
     7.71292374e-02,-3.51432115e-02,-1.37978777e-01, 1.75670851e-02,
     9.88259539e-02,-1.54800462e-02,-1.24243991e-02,-4.65598702e-02},
   { 7.45532522e-03,-1.98709816e-02,-1.55611231e-03, 1.54014558e-01,
     8.33581027e-04, 3.03258877e-02,-3.76401618e-02, 3.84723507e-02,
     1.17596030e-01, 3.31466715e-03,-1.61485210e-01, 5.71691655e-02,
     1.32911444e-01, 1.66385949e-01,-1.27893388e-01,-5.29896915e-02},
   {-7.27335811e-02,-1.58807456e-01,-5.55077009e-02, 8.99623856e-02,
     2.58334260e-02,-8.65823627e-02, 1.61508098e-01, 5.23228869e-02,
     4.15931270e-02,-6.95428550e-02,-1.31364033e-01,-8.71322006e-02,
    -7.74189308e-02, 3.93251814e-02,-3.21218520e-02,-8.54357406e-02},
   {-9.11886021e-02, 1.83390379e-02,-1.78977102e-02,-4.77399852e-04,
    -1.63872883e-01, 5.25095984e-02,-1.18984863e-01, 1.04817227e-01,
    -1.33202195e-01,-3.26349922e-02,-2.37325076e-02, 2.61574183e-02,
    -7.79589042e-02,-1.40975982e-01, 8.75219330e-02, 1.54739380e-01},
   { 1.18937902e-01,-8.59247595e-02,-1.24964304e-01, 1.62383512e-01,
     4.10494134e-02, 9.69774723e-02, 4.39406093e-03, 1.75800800e-01,
     7.81796575e-02,-3.38221551e-03,-5.18116020e-02, 1.76484764e-01,
    -1.70918286e-01, 1.45742103e-01,-1.24519656e-03,-1.15453474e-01},
   {-7.34251589e-02, 6.23804741e-02,-2.71632522e-02, 1.42950853e-02,
    -8.33388641e-02,-6.03173040e-02,-1.40903711e-01, 8.97972509e-02,
    -2.51801051e-02,-1.81492805e-01,-1.22615136e-02,-3.64945829e-02,
     5.86113296e-02,-2.26499047e-03,-1.15571953e-01,-1.05208874e-01},
   { 1.47639453e-01,-4.43383455e-02,-1.93781331e-02,-1.63837284e-01,
     3.16498429e-02,-1.92587540e-01,-1.58489913e-01, 4.16929871e-02,
    -8.33180100e-02, 3.17341536e-02,-7.90336430e-02,-1.05751706e-02,
    -2.63205338e-02, 1.56061143e-01, 7.90044442e-02,-2.35507227e-02},
   { 1.58135459e-01,-1.70533210e-02,-6.73896968e-02, 2.83107329e-02,
    -2.88614314e-02,-5.42643070e-02,-2.84065511e-02, 1.36082828e-01,
     2.72711050e-02,-2.29179207e-02, 1.30860269e-01, 7.94145688e-02,
     6.87801018e-02, 1.45626098e-01,-9.21745040e-03, 4.28656451e-02},
   { 5.94547763e-02, 1.00113317e-01,-2.28125919e-02, 1.17920429e-01,
     4.73564006e-02, 7.47028664e-02, 1.31169260e-01, 1.08261414e-01,
    -5.04717557e-03,-8.97129253e-02,-8.28845873e-02, 4.17004563e-02,
     1.01528317e-01, 1.17961355e-01, 1.32818758e-01, 1.47290200e-01},
   { 9.97666046e-02, 2.19404381e-02, 9.81132910e-02, 8.89479145e-02,
    -7.88525715e-02, 2.09358204e-02,-1.07015632e-01,-1.78536221e-01,
    -7.52135813e-02, 9.40311030e-02,-1.09519564e-01,-4.98586409e-02,
     2.10844018e-02,-4.62922826e-03, 4.79736440e-02,-5.55439815e-02},
   {-8.43337849e-02,-1.88612208e-01,-2.59185303e-02,-1.66064817e-02,
    -1.45927936e-01,-2.46069375e-02, 2.93288399e-02, 9.21980888e-02,
     8.85108039e-02, 9.20333937e-02,-8.96149501e-02, 8.36076066e-02,
    -3.17297727e-02, 1.16405480e-01,-3.19234021e-02,-6.78412104e-03},
   { 6.42218366e-02, 1.49934262e-01, 6.95825145e-02,-4.98272851e-02,
    -2.71251816e-02, 5.23553565e-02,-3.34756449e-03, 5.27398614e-03,
    -7.24197477e-02, 3.45944427e-02, 2.37174667e-02, 4.03308831e-02,
     9.30887554e-03,-1.48664415e-01,-1.08617499e-01, 1.05969809e-01},
   {-1.12128139e-01, 8.56781006e-02, 3.55885848e-02,-6.70336606e-03,
    -8.83696452e-02,-6.32971451e-02, 4.76497114e-02,-4.67071161e-02,
     1.19928725e-01,-1.04840659e-01,-4.12795246e-02, 5.75914159e-02,
     1.42673150e-01, 2.07833219e-02,-1.38320336e-02,-7.63517469e-02},
   { 1.81985050e-02, 3.94379906e-02, 8.08848999e-03,-1.75498042e-03,
    -4.83258739e-02, 9.56415832e-02,-1.71854571e-02, 5.83266392e-02,
     4.65550497e-02, 2.39092503e-02, 1.64571106e-01,-3.50057823e-03,
     1.56741589e-02, 1.45350799e-01, 1.98261086e-02, 1.48251280e-01},
   {-9.81621966e-02,-3.72368023e-02, 1.48988143e-01, 6.29739314e-02,
    -5.30207828e-02,-8.39813128e-02, 1.91616446e-01,-1.62152544e-01,
    -3.23260874e-02, 6.13328479e-02,-5.04491292e-02,-1.12347417e-01,
     7.12388940e-03, 1.18739434e-01,-7.59527385e-02, 4.51539159e-02},
   {-4.21401188e-02, 4.68773879e-02, 6.08146787e-02,-1.57816440e-01,
     9.10923779e-02, 1.12295710e-01,-3.28866877e-02, 9.61196199e-02,
     1.07827727e-02,-3.87836471e-02, 1.02964483e-01, 1.28781617e-01,
     2.38372795e-02,-5.32376841e-02,-1.04479522e-01, 1.11699393e-02},
   {-1.14854112e-01, 1.68767273e-01,-8.44663158e-02,-1.02707386e-01,
     1.33391559e-01, 5.18096425e-02,-6.97404519e-02,-1.26022309e-01,
     1.43902838e-01,-3.72856967e-02,-1.02387816e-01,-1.07433870e-01,
    -1.75510436e-01, 1.22327171e-01, 1.63087189e-01,-6.42626211e-02},
   { 1.40248850e-01, 4.68699541e-03, 4.46201861e-02, 1.58158943e-01,
     2.57647727e-02, 4.45502736e-02, 1.38203697e-02, 4.95730713e-02,
     1.30142286e-01,-1.61549166e-01, 8.73115584e-02, 1.87953994e-01,
    -1.47162020e-01, 1.36570111e-01,-1.29071921e-01, 1.25168890e-01},
   { 1.27561510e-01,-4.77530472e-02,-7.84360021e-02, 1.64174326e-02,
     1.62413195e-02, 8.57168809e-02, 1.01257317e-01,-5.50488904e-02,
     9.33571383e-02, 1.60865802e-02,-7.72935674e-02,-3.10534332e-02,
     9.94602963e-02, 6.69712052e-02, 8.68446901e-02,-1.68570764e-02},
   { 2.65396982e-02,-9.84719023e-02,-3.14115435e-02,-9.35944840e-02,
     1.05982631e-01,-2.56647374e-02, 8.86512250e-02,-1.91662118e-01,
     1.23559162e-01, 4.69726399e-02, 2.94164959e-02,-1.38262689e-01,
    -1.91189237e-02, 4.28909138e-02, 6.14277273e-02, 1.67327106e-01},
   {-3.66485044e-02, 5.23727611e-02,-3.30675505e-02, 6.68620914e-02,
    -7.22654685e-02,-1.12197474e-01, 1.21604636e-01, 1.21497959e-01,
     6.65223971e-02,-6.51732981e-02, 1.59729138e-01, 1.40795529e-01,
    -6.32029073e-03,-1.50910586e-01,-2.61664856e-02, 1.85729116e-01}}},
                                                                   
                                                                   
 {{{-6.18141294e-02,-2.24294830e-02, 6.60898760e-02,-5.35292923e-02,
    -1.02672450e-01, 8.67866948e-02, 3.02643944e-02,-9.82283950e-02,
     1.43539310e-01, 7.29024634e-02, 1.62466004e-01,-2.36786027e-02,
     5.59282377e-02, 3.14102918e-02,-9.47756395e-02, 1.29999161e-01},
   {-1.26520857e-01, 7.25607798e-02, 1.69706002e-01,-6.09396845e-02,
     3.32552418e-02, 6.73960224e-02, 9.27647203e-02, 6.09608591e-02,
    -3.13421078e-02,-7.36178979e-02, 1.31732985e-01,-6.14960305e-02,
     1.04071684e-01, 3.64248678e-02,-8.58531799e-03,-1.11898348e-01},
   {-7.94341937e-02,-8.91246796e-02, 1.88463554e-01, 1.26791820e-01,
     1.22579619e-01, 3.10416445e-02,-2.01432392e-01, 2.87926439e-02,
    -8.54890968e-04, 1.28993496e-01,-5.14207929e-02,-8.03921279e-03,
    -2.56912187e-02, 1.06731422e-01, 2.30689980e-02,-1.56882018e-01},
   {-2.79609207e-02,-3.55252065e-02, 8.49844292e-02,-1.58623472e-01,
     2.08862312e-02, 6.44402429e-02, 6.58518523e-02,-9.23661068e-02,
    -6.78779930e-02,-7.01510254e-03,-5.26786670e-02, 3.07921227e-02,
     2.05542445e-02,-4.61701583e-03, 1.66299701e-01, 1.57608449e-01},
   { 1.45046748e-02, 1.21498451e-01,-1.95049215e-02,-4.75097969e-02,
    -1.23169616e-01, 3.56625370e-03, 9.80329141e-02, 6.19988330e-02,
    -9.09520239e-02,-2.82602720e-02,-7.50372978e-03, 1.63322836e-01,
    -9.53348875e-02, 6.21322766e-02,-8.99661034e-02, 5.14999293e-02},
   {-8.70910287e-02, 1.09920055e-01, 9.27584097e-02, 2.03588288e-02,
    -4.90489565e-02, 3.50809582e-02, 9.43156146e-03,-1.52591923e-02,
     1.66855738e-01,-1.51879385e-01, 6.60251528e-02, 4.82787453e-02,
     3.12835909e-02,-1.71551138e-01,-9.39572975e-02, 5.85130751e-02},
   {-1.55952366e-05,-5.38340658e-02, 1.07374415e-01, 3.29471454e-02,
     1.02147050e-01, 1.10211894e-01, 1.61701441e-01,-1.20095506e-01,
    -3.01636793e-02, 2.82276738e-02,-6.17228523e-02, 5.90388440e-02,
    -4.32905965e-02, 1.00854643e-01, 1.84237938e-02,-6.00251667e-02},
   { 5.97641803e-02, 7.27014020e-02, 1.55852452e-01,-2.11739000e-02,
     1.31631181e-01, 1.10647701e-01, 7.81908184e-02, 1.85303748e-01,
    -1.02088591e-02,-4.90010716e-02,-3.73903662e-02, 2.99162902e-02,
    -6.15798458e-02, 3.53807732e-02, 1.25355944e-01,-2.26377491e-02},
   {-8.95856991e-02, 4.79932949e-02,-1.81753039e-02, 1.06997892e-01,
    -2.51234025e-02, 6.55600280e-02, 4.13879417e-02, 7.84508809e-02,
    -2.83894986e-02, 3.47413011e-02,-1.48615718e-01,-7.55903423e-02,
     6.22124150e-02,-1.53315827e-01, 5.78942634e-02, 1.28081694e-01},
   {-1.45826444e-01,-1.07498430e-01,-8.19067284e-03,-6.21588118e-02,
    -5.40759154e-02,-1.35214314e-01, 1.24119269e-02,-4.00112830e-02,
     7.07572624e-02,-1.49323910e-01,-7.82370716e-02,-1.90512799e-02,
    -1.85724478e-02, 1.09754808e-01, 6.62325472e-02, 1.84763093e-02},
   { 3.74647183e-03,-1.41413122e-01,-3.87416929e-02, 1.06949329e-01,
     9.17429775e-02,-1.50739506e-01, 4.94949929e-02, 6.67732731e-02,
     6.84669912e-02,-1.08045325e-01,-6.50887862e-02,-6.26066849e-02,
     2.24901196e-02, 1.17189132e-01, 4.42778319e-02, 1.25143686e-02},
   { 6.25447482e-02,-4.71049286e-02,-1.44416451e-01,-2.42663883e-02,
    -1.59586444e-02, 1.05043150e-01, 4.16963398e-02, 1.50690496e-01,
    -7.67800286e-02, 3.78158828e-03, 8.57393444e-02, 4.32734191e-02,
    -1.54360980e-01, 1.39641106e-01,-7.79994670e-03,-8.73869658e-02},
   {-7.92647079e-02, 3.00862491e-02, 8.56610984e-02,-1.07732052e-02,
    -1.26272552e-02, 1.82202995e-01,-1.11667939e-01,-2.84399129e-02,
     8.49943887e-03, 6.44444749e-02, 8.82181451e-02,-1.38936654e-01,
     7.06377402e-02, 1.54023305e-01, 6.94631487e-02, 8.63885507e-03},
   {-3.22721750e-02, 1.25010163e-01, 8.15791860e-02, 9.00173411e-02,
     9.63121429e-02, 3.39182056e-02, 5.94426654e-02, 6.43347278e-02,
     4.48828144e-03, 1.82186693e-01,-1.10359779e-02,-1.80531740e-01,
     1.41367495e-01,-1.34288445e-01,-1.36770546e-01, 8.54084152e-04},
   { 7.24358782e-02, 8.56956840e-02, 6.07338697e-02,-6.96517602e-02,
     1.27856024e-02, 7.75153860e-02, 6.08006492e-02, 3.00093740e-02,
    -1.72072724e-01, 1.00436822e-01,-4.60736454e-02,-1.56985875e-02,
     5.84390154e-03, 7.70222098e-02, 3.22060660e-02, 3.42279524e-02},
   {-2.12532245e-02, 7.32918084e-02, 1.14007600e-01,-5.84160946e-02,
    -4.90161441e-02, 1.48181722e-01,-8.15308653e-03,-9.55515134e-05,
     7.76491985e-02,-5.19324932e-03, 2.88317036e-02,-1.17301665e-01,
     9.86938849e-02, 3.94788943e-02,-1.00047728e-02,-4.66326624e-02},
   { 1.02745323e-02, 8.99452195e-02, 1.38022766e-01, 1.05078883e-01,
    -1.39495641e-01,-1.55854328e-02,-1.54763952e-01,-4.53021377e-02,
     4.02717255e-02,-1.54466540e-01, 8.13228544e-03,-4.45342204e-03,
    -6.46990240e-02, 8.16373229e-02,-1.82555877e-02, 1.12821143e-02},
   {-6.57339841e-02, 2.22758558e-02, 4.97676013e-03,-5.56672513e-02,
     5.44941165e-02,-1.57797694e-01, 3.47769409e-02, 9.26743075e-02,
    -1.28327355e-01,-5.39838746e-02, 5.58281541e-02,-3.69199668e-03,
     1.79851595e-02, 1.76736206e-01, 5.59165515e-02,-3.34494151e-02},
   { 4.62027043e-02, 7.96173885e-02, 7.55993882e-03, 2.68942416e-02,
    -6.28756955e-02, 1.28334239e-01, 1.13560021e-01, 4.92928214e-02,
    -2.20157616e-02,-1.50348976e-01,-1.83221161e-01, 4.73677777e-02,
     1.75969563e-02, 6.91683125e-03,-2.54759733e-02,-5.31270131e-02},
   {-1.12959415e-01, 5.19900173e-02,-5.29246628e-02, 2.12338343e-02,
     1.12774335e-01, 1.36377379e-01,-1.46501392e-01, 9.57635045e-02,
    -4.21167677e-03, 9.50740725e-02, 1.29430249e-01, 4.69109928e-03,
     3.22825392e-03,-4.94881049e-02, 5.94931841e-02, 1.06658839e-01},
   { 3.74847949e-02, 1.36050895e-01,-1.19680025e-01,-9.36847106e-02,
    -4.02933843e-02, 1.03131168e-01,-8.02607760e-02,-1.03937469e-01,
     5.24261594e-02, 1.48333207e-01, 1.09797701e-01,-1.31986365e-01,
    -1.35623608e-02,-1.51439719e-02,-2.25807447e-03, 8.31107423e-02},
   { 1.65831089e-01, 5.58093302e-02,-1.40465841e-01, 1.79483220e-01,
    -8.15450102e-02,-1.65733382e-01,-3.69016081e-02, 1.36806101e-01,
    -3.67631949e-02,-6.02238365e-02, 1.13676563e-01,-1.03151515e-01,
     2.10352652e-02,-7.11579844e-02, 1.53706959e-02, 1.44423112e-01},
   {-1.73156515e-01,-1.45977959e-01, 7.78613314e-02,-6.30056709e-02,
    -1.25886761e-02,-9.19739082e-02, 1.35337308e-01,-7.17467740e-02,
    -5.66258878e-02, 1.33207375e-02, 9.17231068e-02,-2.69732308e-02,
    -9.67224613e-02, 3.10255121e-02, 1.17979817e-01, 5.91196073e-03},
   {-1.27983585e-01,-3.71810086e-02, 5.60408384e-02,-1.81744881e-02,
     7.37781748e-02, 2.67228447e-02,-7.42092803e-02, 6.61445111e-02,
    -5.03374524e-02,-4.27446514e-02,-1.22541346e-01,-9.82900262e-02,
    -1.54195338e-01, 1.05928987e-01, 2.93653775e-02,-3.08491345e-02},
   { 1.10689841e-01, 1.75869372e-03, 3.78976502e-02,-1.19471483e-01,
     2.68918965e-02,-7.26678967e-02,-1.10413305e-01, 1.26844877e-02,
    -1.26087472e-01,-1.06931165e-01,-1.96190793e-02,-2.65599228e-02,
     1.04438022e-01,-4.36241254e-02,-3.65603752e-02, 4.79436070e-02},
   { 1.63434163e-01,-4.88143675e-02,-5.93082979e-02, 5.93542913e-03,
     2.33117747e-03, 3.84335369e-02,-4.10421714e-02, 1.21035380e-02,
     1.16143003e-01,-1.39257535e-01, 3.04180123e-02, 1.41132727e-01,
    -1.17525749e-01, 1.56331465e-01, 1.01880610e-01, 7.69374892e-02},
   {-1.31848261e-01, 1.02734834e-01, 8.35421607e-02, 3.98750454e-02,
    -1.67104930e-01,-1.98968127e-02, 1.46313846e-01,-1.20678451e-02,
     1.45244583e-01, 7.83123169e-03, 4.42567002e-03, 4.64759916e-02,
    -5.46382032e-02,-1.56809211e-01,-4.39472757e-02,-7.77231976e-02},
   {-9.73360911e-02, 1.19615935e-01,-5.46925627e-02,-4.40223813e-02,
    -4.11244743e-02, 5.72714247e-02, 2.95326672e-02,-1.09569207e-01,
    -1.51177183e-01,-1.69393465e-01, 2.05748174e-02,-2.57725567e-02,
    -1.84392154e-01,-5.66230044e-02, 1.44183815e-01, 1.12277828e-02},
   {-1.10918254e-01, 3.91623974e-02, 5.13854623e-02,-1.27771646e-01,
     9.19888243e-02,-1.17425010e-01,-3.57213207e-02, 4.74699400e-02,
     9.34474170e-02,-2.75931526e-02,-4.42363843e-02, 1.12612955e-02,
     1.24858364e-01, 1.49150595e-01, 1.03823535e-01, 3.05189155e-02},
   { 1.66691720e-01,-3.19935828e-02,-1.91162748e-03,-6.51163515e-03,
     1.81965567e-02, 1.79988056e-01,-1.24817669e-01,-9.07902718e-02,
    -6.72830567e-02, 1.05742710e-02, 3.47119868e-02,-1.72626469e-02,
    -8.50793645e-02, 1.02713719e-01, 2.22519832e-03, 7.39057139e-02},
   { 3.04062106e-02,-6.44781664e-02, 2.93519646e-02,-6.91207349e-02,
    -1.64796442e-01,-1.11173265e-01,-7.55817518e-02, 1.10353366e-01,
    -1.50805876e-01,-6.88183457e-02, 5.77889942e-02, 9.32086259e-03,
     1.72745034e-01, 1.00334764e-01,-3.00346408e-02, 1.14541426e-01},
   {-1.31525517e-01, 6.26847520e-02, 1.18382804e-01,-1.09220497e-01,
     9.93258208e-02, 4.00451608e-02, 8.83044004e-02,-1.37955621e-01,
     1.35246098e-01,-7.08240196e-02, 4.13154699e-02,-5.91415949e-02,
    -1.08855804e-02,-1.56236723e-01,-3.52207273e-02, 1.37750849e-01}},
                                                                   
  {{-1.11344956e-01,-2.87186112e-02, 9.41210240e-03,-3.02366428e-02,
    -1.16380319e-01, 1.09766372e-01,-5.94758987e-02,-8.79773572e-02,
     3.30085047e-02, 4.70042303e-02, 9.94948298e-02,-1.36034042e-01,
    -1.05021879e-01, 3.56492512e-02, 1.16336383e-02, 6.89602122e-02},
   {-7.80620903e-04,-4.41219769e-02,-5.45133837e-02, 7.73892598e-03,
    -9.63437930e-02,-3.86082418e-02, 6.56027794e-02, 7.28155524e-02,
     5.50777614e-02,-4.88913842e-02,-1.98354751e-01, 1.41156584e-01,
    -7.74281519e-03,-1.95722297e-01,-1.93073362e-01, 5.29920273e-02},
   { 1.38756394e-01,-6.79342374e-02,-8.70650820e-03, 7.36650005e-02,
    -2.92879902e-02, 6.02828301e-02,-4.76954766e-02, 1.84719861e-02,
    -7.22772703e-02, 5.87502532e-02, 1.42450690e-01,-8.13694969e-02,
    -1.03153214e-02,-1.42779499e-01,-8.03809389e-02, 2.69338433e-02},
   {-1.11247793e-01,-2.43752804e-02,-1.33337632e-01,-8.75960141e-02,
     1.09821454e-01,-4.80691567e-02, 1.13056242e-01,-1.04254201e-01,
     4.99203242e-02, 1.22655414e-01,-4.15410846e-02, 3.64129320e-02,
    -1.09153345e-01, 7.34606683e-02, 9.87337455e-02,-1.03773423e-01},
   { 9.42175910e-02, 9.48318560e-03,-2.00311944e-01,-2.69097146e-02,
     1.51006296e-01,-1.54315174e-01,-7.63209611e-02,-5.43339141e-02,
     2.29577627e-02, 1.36303052e-01, 1.24176359e-02,-2.51190197e-02,
     3.12886722e-02,-9.43624601e-02,-4.17113863e-03,-4.10798080e-02},
   { 2.72281934e-02,-1.54234171e-01,-2.28929128e-02,-1.17958017e-01,
     1.54737279e-01,-7.95439109e-02, 1.51610281e-02,-6.89367950e-02,
     9.20353457e-02, 2.79889498e-02, 1.52150914e-03,-8.34090542e-03,
     1.09299824e-01,-2.05426868e-02,-2.08068155e-02, 4.17097919e-02},
   { 3.93854156e-02, 1.84608288e-02, 4.02589701e-02,-1.83324125e-02,
     1.93600953e-01,-6.65222108e-02,-1.94922358e-01, 1.63698867e-01,
    -3.06702405e-02, 1.72681510e-02,-9.03307796e-02,-1.39543116e-01,
     3.60457823e-02, 7.19234580e-03, 7.16649815e-02,-1.06909156e-01},
   { 1.89792290e-02, 7.12412298e-02, 2.42723916e-02,-1.89136297e-01,
    -7.21442178e-02,-1.37148142e-01, 1.14924982e-01, 1.00544609e-01,
    -1.53306589e-01,-1.82343051e-01, 1.61058441e-01, 2.10206416e-02,
     1.77227616e-01,-1.45916894e-01, 6.03150837e-02,-4.02984135e-02},
   {-9.73835960e-02,-1.40467882e-01,-1.48961663e-01,-1.55679816e-02,
     1.05333485e-01, 9.91194230e-03,-5.90505414e-02, 3.18131559e-02,
    -4.68441211e-02,-5.73773943e-02, 8.38291422e-02,-9.79110375e-02,
    -3.49892117e-02,-1.49802333e-02,-5.70805855e-02,-4.64301929e-02},
   { 1.68428030e-02,-7.91372433e-02, 1.93969682e-01, 1.14587797e-02,
    -7.68077001e-02,-5.11151273e-04, 2.44438462e-02,-6.06152788e-02,
     1.82850271e-01, 2.06176415e-02, 1.34111449e-01, 5.63550480e-02,
     1.07741140e-01, 1.24777462e-02,-1.09617576e-01, 9.49475765e-02},
   { 6.82295039e-02, 4.15835008e-02, 1.64731845e-01,-1.48898140e-01,
     2.22627372e-02,-4.20062989e-02, 2.00417601e-02, 1.81904480e-01,
    -4.99278307e-04, 5.68190925e-02, 7.44339675e-02, 1.49026010e-02,
     1.19843306e-02, 5.57175186e-03, 4.71984260e-02, 1.29662663e-01},
   { 4.45277803e-02,-1.76568836e-01,-8.49398971e-02,-2.78889085e-03,
     3.40897590e-02,-5.80583476e-02, 3.05993203e-02,-2.91794888e-03,
     1.14855319e-02, 8.95825680e-03,-7.24512935e-02,-1.11239247e-01,
    -7.93880150e-02,-1.11314498e-01,-8.52802396e-02, 6.10421635e-02},
   {-2.39588078e-02, 1.15795851e-01,-6.05795570e-02, 3.99138071e-02,
     1.04388244e-01, 1.44133106e-01,-1.92465205e-02, 1.73972383e-01,
    -7.13930652e-02,-4.83131409e-02, 1.07768618e-01,-2.23187823e-02,
     1.07779145e-01, 6.54050559e-02,-1.21171691e-01, 1.53778458e-03},
   { 8.55533257e-02,-4.11305055e-02,-1.08424647e-04, 1.63505021e-02,
     3.58860455e-02, 8.37814882e-02, 3.65647823e-02,-1.60150990e-01,
     1.15850344e-02, 1.41007528e-01,-5.73082222e-03, 1.01468880e-02,
    -5.46425506e-02, 9.07365754e-02, 9.20764580e-02, 7.33922124e-02},
   { 1.00180365e-01,-2.37362143e-02, 7.05157295e-02,-9.93053541e-02,
     5.36506474e-02,-1.27446624e-02, 4.37878743e-02, 3.31870723e-03,
     1.23381913e-01,-1.14672035e-01,-4.38678823e-02, 4.29450758e-02,
     1.99849606e-01, 1.14410020e-01,-6.35567978e-02, 1.47766247e-01},
   { 1.74278915e-01, 4.91070189e-03, 9.51048285e-02,-6.54961914e-02,
     9.23476219e-02,-2.77160760e-02,-1.51560847e-02,-9.17600617e-02,
     2.29173768e-02, 4.88021336e-02,-1.21075466e-01,-3.89649905e-02,
     5.01595251e-02, 1.86865255e-01, 1.92251839e-02,-1.46334797e-01},
   {-4.68005762e-02, 5.00437208e-02, 9.93055385e-03, 8.82217139e-02,
     4.42145653e-02,-1.84219761e-03,-1.40458103e-02, 2.39958148e-02,
    -1.84964404e-01, 1.81337848e-01,-1.49472086e-02,-1.02945529e-02,
     8.14768448e-02,-1.61646813e-01, 1.46876231e-01,-7.74134621e-02},
   {-3.54109444e-02,-1.53712451e-01,-1.57936905e-02,-1.97466269e-01,
     3.15727033e-02, 1.69923246e-01, 2.51142047e-02, 1.16661511e-01,
    -7.10756145e-03,-6.97692484e-02,-5.66384569e-02,-2.22461391e-02,
     6.17622435e-02, 4.63031046e-02,-1.31228209e-01, 6.33486360e-02},
   { 6.32932037e-02,-3.69624458e-02,-3.17256129e-03,-4.78229858e-02,
     2.61140168e-02, 1.20771579e-01, 7.48070851e-02,-4.33144644e-02,
    -2.55201198e-02,-6.43278435e-02, 1.27349973e-01, 4.56117559e-03,
     7.58793801e-02,-2.52252854e-02,-1.31087467e-01,-9.46969688e-02},
   { 1.04218297e-01, 4.78177667e-02,-5.92392758e-02,-1.90551102e-01,
     6.88483194e-02, 9.79080647e-02, 1.46152144e-02,-4.10848856e-02,
     1.11221589e-01,-1.02240652e-01, 8.29550847e-02,-1.71848703e-02,
     1.23816818e-01,-1.77986156e-02, 9.19562355e-02, 9.79697928e-02},
   {-1.30922973e-01, 1.08149715e-01, 6.67616352e-02,-2.97472663e-02,
    -5.05403019e-02,-9.73782614e-02, 9.32507291e-02, 1.17761038e-01,
     5.03909867e-03,-7.54122017e-03,-6.90287054e-02,-7.99836144e-02,
     1.47486813e-02,-6.18066937e-02, 3.57024856e-02,-2.52111834e-02},
   {-9.61876754e-03,-5.53422123e-02, 7.84539357e-02,-8.72702524e-03,
    -1.10438973e-01, 1.58258036e-01, 1.44164739e-02,-6.94483593e-02,
     1.18070334e-01, 2.23766640e-02,-1.23838082e-01, 1.32659301e-01,
     6.05148897e-02, 3.26759145e-02,-4.96318154e-02,-2.49135550e-02},
   {-1.22225590e-01,-1.54289044e-02, 1.71408653e-01,-2.00818852e-02,
     1.39055744e-01,-4.52225246e-02, 9.53152701e-02, 8.18187445e-02,
    -1.18575692e-01, 9.76046547e-03, 3.27569507e-02,-4.59758677e-02,
     2.34717000e-02,-1.11180887e-01,-4.90899310e-02, 1.83884408e-02},
   { 1.63574398e-01,-9.25149918e-02,-1.43970447e-02,-1.29525568e-02,
    -1.49149910e-01, 1.20617628e-01, 1.25761598e-01, 6.92565367e-02,
     8.51636827e-02, 1.78679619e-02, 3.16812284e-02, 1.07530855e-01,
     7.31009021e-02, 1.09320087e-02, 1.02065720e-01,-1.50679290e-01},
   {-1.63043831e-02,-1.58137813e-01,-2.00084765e-02, 5.08926390e-03,
     1.83009222e-01, 7.31857074e-03,-1.06861286e-01, 1.16015948e-01,
    -1.14864446e-01, 1.19389899e-01, 9.96340886e-02,-4.50656004e-02,
    -1.79628842e-02,-9.61404741e-02, 2.76783155e-03,-8.15092027e-02},
   { 1.52632803e-01,-3.27544324e-02,-7.41364285e-02,-1.17682116e-02,
     3.56029160e-02,-4.07400308e-03,-9.81640890e-02, 9.88903921e-03,
     9.40527841e-02, 7.84021094e-02, 8.69786069e-02, 2.64790636e-02,
    -1.76881021e-03, 4.75416519e-02,-1.51865438e-01, 6.94004595e-02},
   { 4.77546230e-02,-2.13810094e-02, 1.18772499e-01, 7.32627288e-02,
    -1.08851202e-01,-2.41033342e-02,-1.98394611e-01, 8.20647180e-02,
    -1.71854272e-01,-3.00476037e-04, 7.85418898e-02,-1.08317219e-01,
     1.19267188e-01,-4.01772894e-02,-1.15374096e-01,-6.56408742e-02},
   {-1.61926970e-01,-9.05353352e-02, 2.34368369e-02,-7.77966753e-02,
    -4.18568440e-02,-1.46207109e-01, 1.27759546e-01,-6.16832171e-03,
    -4.26303223e-02,-8.82520527e-02,-1.35371946e-02, 1.03294335e-01,
    -5.01637012e-02,-7.71339610e-02, 9.72731635e-02, 1.56764179e-01},
   {-1.21221237e-01, 1.85603816e-02, 3.58241834e-02,-1.13183759e-01,
     1.37906238e-01,-5.58410436e-02,-6.39861301e-02, 4.62378301e-02,
     6.23413995e-02, 4.48525697e-02,-1.20292008e-01,-7.77111426e-02,
    -3.33501622e-02,-2.41379123e-02,-5.24051152e-02,-7.67885968e-02},
   { 6.90144897e-02,-1.92772046e-01,-1.01631217e-01,-8.29379186e-02,
    -1.61452711e-01, 6.13217987e-02, 5.68243712e-02, 3.14498171e-02,
     7.15540573e-02,-1.18250482e-01,-1.57473445e-01, 4.48925123e-02,
     2.72534471e-02,-7.89057370e-03,-4.97162603e-02, 2.33032205e-03},
   { 2.31870124e-03, 5.27692586e-02,-1.74694993e-02, 1.33263115e-02,
     5.38084954e-02,-1.12261347e-01,-1.45677207e-02,-1.10125147e-01,
     1.24057561e-01, 1.55321315e-01,-5.96320480e-02, 3.74827534e-02,
     3.63107845e-02,-4.55977246e-02, 2.48831604e-02,-5.27933836e-02},
   { 3.20711844e-02, 7.66574442e-02,-1.25354305e-02, 3.07674594e-02,
    -1.85381230e-02,-9.08361003e-03, 2.33425722e-02, 2.88276523e-02,
    -9.55813229e-02,-5.37469089e-02, 5.58743402e-02, 4.22573611e-02,
     1.24831118e-01,-2.25618373e-06,-5.34034409e-02, 8.92859474e-02}},
                                                                   
  {{-1.44269794e-01, 7.82299265e-02,-9.18885991e-02, 1.25902697e-01,
    -2.88913194e-02,-6.61045536e-02, 5.67853861e-02,-3.83502841e-02,
     1.03798077e-01, 1.04549743e-01, 3.56549509e-02,-2.80150361e-02,
    -1.37708277e-01, 8.77583690e-04,-4.93370071e-02,-1.09968573e-01},
   { 2.06479151e-02, 1.72546476e-01, 6.81842566e-02,-1.20330140e-01,
    -7.75782987e-02,-4.73908111e-02, 3.74433063e-02,-1.80679131e-02,
     6.90135956e-02,-8.57386589e-02, 9.30134431e-02,-1.18680112e-01,
     2.56791734e-03,-4.60162610e-02,-3.15057002e-02, 1.40219316e-01},
   { 9.16195475e-03, 1.51704811e-02,-1.29349664e-01, 1.86422914e-01,
     1.37400497e-02, 4.97508012e-02, 1.86369628e-01, 6.32107705e-02,
     5.77667207e-02, 9.97385159e-02, 9.24423710e-03,-1.45095453e-01,
     1.76656223e-03,-4.91006523e-02,-3.56806554e-02,-1.44110337e-01},
   { 1.58878136e-02, 2.48990748e-02, 1.15072489e-01,-8.29782635e-02,
     1.04772359e-01, 4.12539467e-02,-8.90909508e-02,-3.75567563e-02,
    -7.74584413e-02,-1.11907437e-01, 1.57668710e-01, 8.00016075e-02,
    -1.66487321e-01,-5.70348948e-02, 3.89760472e-02,-1.16395010e-02},
   {-8.38672444e-02,-1.59618273e-01, 1.22198515e-01, 7.73582309e-02,
     4.01647091e-02,-6.93372544e-03,-9.63351950e-02,-1.45325080e-01,
    -7.86049515e-02,-1.50352344e-01, 1.67636629e-02, 9.37470719e-02,
    -1.59346029e-01, 3.61033827e-02, 2.06165854e-02, 5.46234772e-02},
   {-1.40665591e-01,-2.01693308e-02, 6.57690763e-02, 3.86467762e-02,
     5.87576404e-02, 2.34991424e-02,-2.01268673e-01, 8.37730840e-02,
     7.90332034e-02,-1.53022045e-02, 8.87362733e-02,-6.69933558e-02,
     3.29878554e-02, 3.96604836e-02, 6.13792688e-02, 6.03958182e-02},
   {-1.65921487e-02,-5.32324649e-02, 2.35323161e-02,-1.29792839e-01,
     2.01204866e-01, 9.60561708e-02,-6.07661270e-02, 1.53682590e-01,
    -2.79349647e-02,-4.54939641e-02,-2.40505934e-02, 1.20347857e-01,
    -1.86780840e-03, 3.76941189e-02, 1.51147246e-01, 1.15228757e-01},
   { 9.24299099e-03,-8.75131711e-02,-6.10252246e-02,-5.14357947e-02,
    -4.44092080e-02, 1.54891655e-01,-1.24055229e-01, 4.29412946e-02,
    -1.54537678e-01, 7.49078840e-02,-5.21122552e-02,-3.53272185e-02,
     7.81465173e-02,-1.79679036e-01,-6.15688190e-02, 1.32236183e-01},
   {-3.48272510e-02,-1.22273594e-01, 2.75724009e-02, 5.27513921e-02,
     1.16939656e-02, 7.23310187e-02, 1.60047552e-04,-5.90763949e-02,
    -9.67595279e-02, 3.27216871e-02,-7.11614564e-02, 1.57192826e-01,
    -5.42994328e-02,-1.07337153e-02, 4.50937152e-02,-2.45533399e-02},
   { 9.78123397e-02,-5.34149483e-02,-1.18916906e-01, 5.41141555e-02,
     5.00773638e-03, 6.76614344e-02, 1.73657686e-02, 1.92122906e-02,
    -7.73146003e-02, 1.32798925e-01,-7.72024170e-02, 3.55090797e-02,
    -1.38699383e-01, 1.29002064e-01, 3.06942612e-02, 1.02690548e-01},
   { 1.54801717e-04,-2.45073251e-02, 2.45384928e-02,-7.90303126e-02,
     4.31368910e-02,-7.06697777e-02,-1.49103314e-01,-3.38674430e-03,
     1.02198660e-01,-8.89280066e-02, 1.51440501e-01,-1.45245075e-01,
    -9.14954487e-03,-1.72982410e-01,-1.00642502e-01,-8.47082287e-02},
   { 5.47843091e-02, 4.86724898e-02,-1.01429865e-01,-1.62004292e-01,
    -1.87517658e-01,-1.10013202e-01, 7.76621178e-02,-9.89047512e-02,
     8.02729353e-02,-2.69287135e-02,-8.46369117e-02,-7.21482188e-02,
    -5.44472449e-02,-4.07082103e-02, 6.33980408e-02, 8.72635394e-02},
   { 3.94024663e-02,-3.75137851e-02,-1.87298760e-01,-2.42522061e-02,
    -7.51172006e-02, 2.27872003e-02,-1.27412351e-02,-6.39935359e-02,
    -2.47416198e-02, 1.02053404e-01, 7.23222457e-03,-3.25281732e-02,
     1.59528591e-02,-1.74443007e-01, 2.41476651e-02,-8.22896808e-02},
   { 4.52765524e-02, 1.53828293e-01,-5.56999147e-02,-2.37021707e-02,
    -8.33323598e-02, 8.63941833e-02,-1.26190871e-01, 5.80185726e-02,
     1.00299932e-01,-5.50890192e-02, 5.59723899e-02, 1.08947806e-01,
     5.86108156e-02, 8.73092655e-03,-8.54908675e-02,-9.25069326e-04},
   { 5.71806319e-02,-1.88657288e-02,-9.53990445e-02, 3.25978771e-02,
    -3.20027061e-02,-3.48745403e-03,-6.21578097e-02, 8.48104879e-02,
     9.19726491e-02,-6.36366457e-02,-9.23352037e-03, 7.69846961e-02,
     7.49146342e-02, 7.17537403e-02, 1.49291441e-01, 8.34431052e-02},
   { 6.10901490e-02, 4.18084189e-02, 1.72356907e-02, 6.50084093e-02,
    -3.67276333e-02, 1.31845102e-01, 1.72420233e-01,-8.61480716e-04,
    -1.29718939e-02,-6.85342122e-03,-4.60202061e-02,-4.52218490e-04,
     4.77909073e-02, 8.68157670e-03,-7.19877658e-03,-2.54529081e-02},
   {-3.93918902e-02,-1.39964938e-01, 3.33668962e-02,-1.29447982e-01,
     6.85303211e-02, 2.89282501e-02, 6.16218448e-02,-1.76399648e-01,
    -6.57596290e-02, 2.37699598e-02, 7.24825412e-02, 7.02178180e-02,
    -8.02050158e-02,-5.41938096e-02,-1.05094403e-01,-6.28857166e-02},
   { 3.43653820e-02,-1.27437651e-01, 5.17896153e-02,-1.35338277e-01,
     4.89563867e-02, 8.17280784e-02, 5.06515242e-02, 1.53019186e-02,
    -1.50311500e-01, 1.51149035e-01,-1.49619319e-02,-1.03942312e-01,
     8.50403123e-03,-8.16187114e-02,-7.73175061e-02, 5.24412617e-02},
   {-4.86129522e-02,-7.93501288e-02,-8.32428187e-02,-4.78509478e-02,
    -3.99687141e-03,-9.23661515e-02, 3.72693203e-02,-7.31595680e-02,
    -2.31514946e-02,-6.24260716e-02,-4.62367050e-02, 1.49604501e-02,
    -1.45980306e-02, 3.04340366e-02, 7.47326538e-02, 2.76792399e-03},
   {-1.05391026e-01, 1.35888949e-01,-1.80650800e-02,-8.93165991e-02,
    -1.35961294e-01, 5.88882007e-02, 1.44451156e-01, 1.40055129e-02,
     1.05042242e-01, 5.65006658e-02, 4.13374715e-02, 3.37923281e-02,
    -1.95715427e-02,-3.66263613e-02,-4.10461277e-02,-1.22966744e-01},
   {-1.37131676e-01,-9.70668793e-02,-8.43420699e-02,-5.17052645e-03,
    -5.03273197e-02,-5.15779406e-02,-4.09025513e-02,-3.24801616e-02,
     6.02409020e-02,-6.92882538e-02, 5.00447638e-02, 6.81193769e-02,
    -1.49255700e-03, 7.84800127e-02, 3.07040066e-02,-5.55877527e-03},
   { 1.54764578e-01, 1.36159599e-01, 9.02598873e-02, 1.77688047e-03,
     7.61197507e-02,-3.89995128e-02,-6.75158054e-02,-9.48310569e-02,
     1.39660910e-01, 1.78398028e-01,-1.91486582e-01, 1.22270398e-02,
    -1.03892438e-01,-3.24907079e-02, 4.10655439e-02,-5.33947609e-02},
   { 1.37204438e-01, 1.19850412e-02, 2.72303913e-02,-1.04642272e-01,
    -6.14934303e-02,-1.07261002e-01, 7.67408088e-02, 5.38384877e-02,
    -1.10980175e-01,-7.40623325e-02, 4.55643237e-02, 6.19235002e-02,
     6.48916364e-02,-1.82020087e-02, 1.04050249e-01, 5.35188541e-02},
   { 1.32610321e-01, 1.82387270e-02, 1.04942434e-01, 1.07493782e-02,
    -1.08445890e-01, 8.61741826e-02,-5.87330721e-02,-3.30380946e-02,
    -7.87270814e-02,-7.04637915e-02, 5.45738488e-02, 2.96626287e-03,
    -8.79644826e-02, 1.64972559e-01, 3.80544551e-02,-1.65611178e-01},
   { 2.42032427e-02,-5.84716350e-02,-1.11082427e-01, 4.48285602e-02,
    -1.25435203e-01,-1.55406997e-01,-6.81035360e-03, 1.47923723e-01,
    -1.54918432e-01, 1.08645745e-01,-7.23152235e-02, 9.16256756e-02,
     1.41767904e-01,-1.09621711e-01, 5.61235882e-02, 1.01182938e-01},
   {-3.56775299e-02,-5.61381392e-02,-7.36327544e-02,-8.37689638e-03,
    -1.62674189e-01, 1.75135463e-01, 7.94945210e-02, 3.65227535e-02,
    -1.89703945e-02,-1.39702320e-01,-7.71707147e-02,-7.14011565e-02,
     1.17195416e-02,-1.01248778e-01, 3.17622200e-02, 3.56601588e-02},
   { 5.75503893e-02, 5.63255027e-02,-1.15691774e-01,-2.73208190e-02,
    -8.01880956e-02,-1.39449179e-01, 1.61764771e-02,-1.87402889e-01,
    -1.85142815e-01,-3.06062717e-02,-6.37426879e-03, 5.69707155e-02,
     1.43537641e-01, 1.94241442e-02, 1.74201474e-01, 9.23286229e-02},
   { 4.46011759e-02,-6.49987310e-02,-4.73194011e-02, 1.21452354e-01,
     1.07356273e-01, 5.25943115e-02,-6.22702278e-02, 6.52142614e-02,
    -4.67529893e-02, 3.34671251e-02,-1.38790244e-02, 1.47350719e-02,
     3.29500064e-02, 3.48939113e-02, 1.56830296e-01, 7.19921663e-02},
   {-2.62460560e-02, 2.80751698e-02, 9.32535678e-02,-5.18131666e-02,
    -8.46089721e-02, 3.88187841e-02, 1.04812510e-01,-1.11718029e-01,
    -4.53752317e-02, 1.08731866e-01,-1.60583239e-02, 1.25083610e-01,
     1.64184719e-02,-2.95991823e-02, 5.67520857e-02,-7.96630979e-02},
   {-1.21015772e-01, 1.33269103e-02,-6.80749416e-02,-8.95630047e-02,
    -8.10375735e-02, 4.68094572e-02,-1.41335934e-01, 2.14616526e-02,
     7.80073777e-02,-1.06918991e-01, 5.62085398e-02, 1.52022362e-01,
     1.40183911e-01,-1.18361443e-01, 1.19108269e-02,-1.97493240e-01},
   { 3.86145487e-02,-1.44351989e-01,-2.32943427e-02, 1.15547605e-01,
    -1.14921637e-01,-1.00433610e-01,-6.85556307e-02, 1.02371201e-01,
    -1.39229149e-01, 5.47019914e-02, 5.84420264e-02,-1.30058303e-01,
    -2.70755813e-02, 7.42526576e-02, 1.06009103e-01,-1.75815344e-01},
   { 1.57789767e-01, 3.34391221e-02,-1.51216149e-01, 8.50087181e-02,
     3.93583365e-02,-6.71245679e-02,-8.28951225e-02,-1.64129790e-02,
     8.02121405e-03, 9.68336314e-02, 2.72591449e-02,-1.78565308e-01,
    -7.61022568e-02,-1.27047360e-01, 1.22497052e-01,-5.90665862e-02}}}};
static float c2_biases[conv2_num] =
{0.10601097, 0.09301317, 0.10970275, 0.09208877, 0.10847752, 0.11165462,
 0.10064235, 0.11037653, 0.1010744 , 0.10586433, 0.10943943, 0.1,
 0.10999489, 0.0878045 , 0.11119276, 0.09268073};
static float c3_weight[3][3][conv2_num][conv3_num] =
{{{{-2.98016500e-02,-6.75063208e-02,-5.65947331e-02,-2.57035084e-02,
    -8.44513699e-02,-2.76470240e-02, 1.32989045e-02, 6.33250549e-02},
   {-6.10686578e-02,-1.94387615e-03,-4.08916585e-02, 6.97708353e-02,
    -1.41826779e-01,-8.98342952e-02, 6.21592335e-04,-4.98271771e-02},
   { 1.10295646e-01,-4.64034304e-02, 3.29714715e-02,-5.86104766e-02,
    -4.24163900e-02, 6.79777414e-02, 1.44311905e-01,-1.71981350e-01},
   {-6.38868436e-02,-8.03297758e-02, 7.08313659e-02, 1.41065046e-01,
    -1.49258319e-02,-4.81276996e-02,-1.86030567e-01,-8.71785507e-02},
   {-1.92221627e-03,-2.56584063e-02, 6.03360794e-02,-1.63556144e-01,
     1.40175059e-01, 1.43373862e-01,-1.21758558e-01, 1.73741560e-02},
   { 6.94766268e-02, 1.92124713e-02, 2.01478168e-01,-8.01580250e-02,
     1.08513430e-01, 2.31448542e-02, 1.05319425e-01,-1.73532948e-01},
   { 3.60334548e-03,-1.49076656e-01, 1.20079694e-02,-1.69974178e-01,
     6.90091983e-05,-3.50681469e-02,-1.74239144e-01,-1.19985051e-01},
   {-1.09780632e-01, 6.78937808e-02, 6.15388304e-02,-7.93238655e-02,
     1.54497981e-01,-6.06689118e-02, 3.94464657e-02, 8.43344405e-02},
   {-2.98537891e-02,-1.40147135e-01, 6.53510541e-02,-1.63240824e-02,
    -2.71140989e-02, 1.27823353e-01, 2.42990199e-02, 2.08943814e-01},
   {-1.41044678e-02,-5.32969981e-02, 5.77707477e-02, 8.08811113e-02,
    -5.40780388e-02,-5.01204394e-02,-7.36510241e-03,-2.85113361e-02},
   {-1.06076509e-01,-4.04441617e-02, 3.55459116e-02,-1.85239259e-02,
     1.93939060e-02, 9.35599357e-02, 1.43454492e-01, 1.22980580e-01},
   {-4.64595994e-03,-6.51290566e-02,-2.93539800e-02, 6.82067126e-02,
    -1.09885730e-01,-6.86959475e-02,-2.16361415e-02, 7.16420412e-02},
   { 8.86744708e-02,-1.51418462e-01, 3.86205688e-02, 1.71313144e-03,
    -9.62119922e-02, 1.00932285e-01,-1.80937901e-01, 9.30283219e-02},
   {-5.53660132e-02, 7.17777237e-02,-4.76706363e-02,-1.72397378e-03,
     2.88847554e-02, 9.88438427e-02, 9.36542004e-02,-6.37957528e-02},
   { 4.94833523e-03, 9.81799439e-02,-1.06889131e-02,-3.66551094e-02,
    -1.74726900e-02,-2.09090319e-02,-9.66802463e-02,-5.57445223e-03},
   {-1.01494916e-01,-7.78799951e-02, 9.17725340e-02, 8.52030292e-02,
    -7.69385472e-02, 1.27580598e-01,-1.84669182e-01, 1.20838441e-01}},
                                                                   
  {{-1.00568794e-02, 5.60634583e-02,-5.61494045e-02, 4.40511070e-02,
    -6.31741732e-02,-1.00435592e-01,-6.00011973e-03,-1.21218853e-01},
   {-2.40315171e-03, 9.45523679e-02,-8.35155044e-03,-6.85738623e-02,
    -1.51862036e-02, 6.89740852e-02,-3.49727012e-02, 1.28064945e-01},
   { 1.29686603e-02,-1.85276389e-01,-7.42262043e-03,-1.20876737e-01,
    -3.57776857e-03,-3.42606083e-02,-8.49766806e-02,-6.59956187e-02},
   {-3.63754258e-02, 6.74655363e-02, 1.38692468e-01,-9.59444046e-02,
    -2.98470557e-02,-7.95576870e-02,-2.05379829e-01,-7.46003911e-02},
   { 3.79664339e-02, 1.28428563e-01, 3.26343179e-02,-6.50260523e-02,
     1.07133858e-01, 8.87262747e-02,-1.75697096e-02, 9.74174365e-02},
   { 1.13840722e-01,-1.51814908e-01, 5.71390800e-02, 3.27417254e-02,
     1.91909090e-01, 9.70095992e-02, 4.00986187e-02, 2.45931800e-02},
   { 1.01565812e-02,-1.03175685e-01, 2.13088877e-02,-2.09147111e-01,
     5.13947122e-02, 1.11632727e-01, 7.07884878e-02, 1.33741861e-02},
   { 8.42609107e-02, 1.06678009e-01,-7.73018450e-02,-1.19949408e-01,
    -1.40231118e-01,-8.98425747e-03,-1.77177966e-01, 5.79942055e-02},
   {-1.04934961e-01,-7.35487789e-02, 1.02101073e-01,-2.23870650e-02,
     1.59316614e-01, 2.34636646e-02, 2.39059553e-02,-9.65493768e-02},
   {-1.67328447e-01,-6.21988624e-03,-2.33487468e-02,-1.05016738e-01,
    -2.84672305e-02, 1.49431467e-01, 7.59913549e-02, 5.70210963e-02},
   {-1.18749745e-01,-2.97323260e-02,-9.18222070e-02,-5.50417155e-02,
    -1.16065152e-01, 8.79311636e-02,-1.57541394e-01, 1.02602849e-02},
   {-6.31558821e-02, 3.05275153e-02,-3.35636362e-03, 9.60503593e-02,
    -5.54415174e-02, 1.28294483e-01,-1.01773083e-01,-1.40756173e-02},
   {-1.41804561e-01, 1.50438353e-01, 1.80539951e-01,-1.53533891e-01,
    -1.84795856e-02,-2.08946727e-02, 1.49352059e-01, 7.06105456e-02},
   { 6.96681738e-02,-4.38355915e-02,-9.14765298e-02,-2.86704395e-02,
    -4.14236784e-02, 1.31443843e-01,-1.46421105e-01,-1.13889933e-01},
   {-1.58288121e-01,-4.35398221e-02,-6.26149252e-02, 1.30448684e-01,
    -4.48074825e-02, 6.49866357e-04, 7.92127848e-03,-8.25784132e-02},
   {-2.78137121e-02,-1.01305984e-01, 1.37032820e-02,-5.45876026e-02,
    -1.03419088e-01, 6.43157065e-02,-1.34368405e-01, 1.65705457e-01}},
                                                                   
  {{ 7.22159147e-02,-5.98780513e-02, 2.11817607e-01,-7.06188083e-02,
     1.73261836e-02,-2.53233630e-02, 6.51990175e-02,-1.57807380e-01},
   {-1.63622022e-01, 2.61212680e-02, 6.84199408e-02, 1.13327220e-01,
    -4.41089235e-02,-7.85767734e-02,-7.46363178e-02, 1.32622406e-01},
   { 4.30923589e-02,-7.00726435e-02,-2.91772373e-02, 4.56480943e-02,
     1.17116727e-01,-8.23100433e-02,-1.38689920e-01, 1.48406938e-01},
   {-1.20017551e-01,-9.23481882e-02,-3.03616002e-02, 9.25171003e-02,
     1.87708467e-01, 2.58857268e-03, 7.78473094e-02,-7.02203885e-02},
   { 4.48329858e-02, 1.26722287e-02, 8.09814855e-02,-5.78453764e-02,
     1.02397569e-01, 5.55150062e-02, 9.01085213e-02, 1.11661986e-01},
   { 2.07698978e-02,-9.55356881e-02,-9.33761969e-02, 5.50141186e-02,
     1.28529236e-01, 1.18329175e-01,-2.45451387e-02,-1.30991936e-01},
   {-4.87685502e-02,-8.51969719e-02,-5.74800521e-02,-4.44301777e-02,
     7.13753840e-03,-7.55537003e-02, 8.33020434e-02, 2.62196027e-02},
   {-1.69399932e-01, 6.84005469e-02,-8.30167830e-02,-4.75264490e-02,
    -7.43811652e-02,-1.39965042e-01, 1.52489185e-01,-1.31302357e-01},
   {-6.66756183e-02, 1.01661034e-01, 3.68113630e-02, 1.25712693e-01,
     1.98338047e-01, 7.57461414e-03,-6.34926707e-02, 3.50984670e-02},
   {-5.35710976e-02, 8.27073529e-02, 8.54033604e-03,-1.12542577e-01,
     5.34983575e-02, 1.23966314e-01,-1.86251029e-01, 3.97498347e-02},
   { 1.39287725e-01,-8.71085078e-02,-8.68215486e-02,-5.43760397e-02,
    -7.52222762e-02,-6.21261969e-02,-1.05156884e-01, 4.35144678e-02},
   {-1.10956848e-01,-7.13060275e-02, 1.51167855e-01,-5.07687144e-02,
     1.25974223e-01, 9.98375118e-02, 9.48023610e-03, 1.38360992e-01},
   {-4.64421734e-02,-9.57932696e-03,-9.58902687e-02, 5.86940274e-02,
     1.15079343e-01,-7.16324300e-02, 1.25465050e-01, 1.59931138e-01},
   {-8.04210529e-02,-5.38104363e-02, 1.01639077e-01,-7.85265025e-03,
    -1.65587619e-01, 7.34116957e-02,-2.51686703e-02, 7.24302009e-02},
   {-5.67253642e-02,-1.59881189e-01, 7.87208751e-02,-3.11489857e-04,
     4.42386940e-02, 1.07924849e-01, 9.95697454e-03, 5.09185195e-02},
   {-3.49363219e-03, 1.29881531e-01, 1.29042789e-02, 1.26068015e-02,
     1.26641929e-01, 7.05842972e-02, 2.97769662e-02, 5.06000742e-02}}},
                                                                   
                                                                   
 {{{-8.43460113e-03, 5.94606996e-03,-9.71752927e-02, 4.17532846e-02,
    -2.66347956e-02, 1.23163156e-01, 6.71424568e-02,-1.05163798e-01},
   {-4.84154001e-02,-1.66475356e-01,-1.83834195e-01,-4.56115492e-02,
     2.09545806e-01, 1.00524783e-01, 4.94689941e-02,-7.31081814e-02},
   { 4.83606802e-03,-9.04649049e-02,-1.51766971e-01, 1.46261498e-01,
    -1.25793219e-01, 4.92251627e-02, 1.80599410e-02,-3.21225822e-02},
   { 1.22462817e-01, 7.23736733e-02, 1.43778846e-01,-8.50180686e-02,
    -1.24630131e-01, 8.14056396e-02, 5.65197878e-02, 1.18544698e-01},
   {-1.81739807e-01,-2.08071135e-02,-1.00869484e-01, 1.38547629e-01,
     8.19883030e-03, 2.58608218e-02, 1.78419188e-01,-1.75712444e-02},
   {-1.22057743e-01, 1.63563445e-01, 2.81881392e-02,-1.08211264e-02,
    -1.50554985e-01, 1.26892701e-01, 1.96342573e-01, 1.26508614e-02},
   { 7.09498152e-02,-7.97791928e-02,-1.82617277e-01,-1.57915682e-01,
     1.34180978e-01,-3.35586742e-02,-1.43777922e-01,-5.42563088e-02},
   { 7.54768848e-02, 4.27388325e-02,-3.83824185e-02, 5.07916696e-02,
     7.60996491e-02,-3.06438450e-02, 7.16464072e-02, 1.00973725e-01},
   {-4.84473519e-02, 2.85135303e-02,-3.13764289e-02, 1.26182705e-01,
    -6.45545423e-02, 9.72220376e-02,-4.68451455e-02,-1.42227183e-03},
   {-1.13433942e-01, 8.84202421e-02,-2.43418710e-03, 5.18930815e-02,
    -2.84926593e-02,-7.40282834e-02, 7.49817714e-02,-1.16995601e-02},
   {-5.21025397e-02,-4.44842167e-02, 3.27132903e-02, 5.18130735e-02,
    -5.18278889e-02,-1.71441525e-01,-9.87321809e-02,-3.03431768e-02},
   { 4.34598653e-03, 2.48256978e-02, 1.52849425e-02,-3.72130014e-02,
    -2.66646501e-02,-2.96576656e-02,-7.25543275e-02,-4.53811176e-02},
   { 9.04015377e-02, 4.90326919e-02,-6.71645403e-02,-7.80205503e-02,
    -5.12992330e-02,-4.91063967e-02,-1.34297222e-01, 7.89005160e-02},
   {-1.47084996e-01,-8.55178311e-02, 1.76714808e-01,-4.79111262e-02,
     6.30942360e-02,-3.57107259e-02,-1.43294886e-01,-5.92281185e-02},
   {-8.24826360e-02,-4.58164774e-02, 8.07211474e-02,-4.60019102e-03,
    -3.10798269e-02, 7.57149160e-02,-7.05352724e-02,-4.19557914e-02},
   { 1.31948873e-01,-3.13569605e-02, 1.18411504e-01,-1.85182005e-01,
     1.83810696e-01, 5.24574481e-02, 4.49384935e-02,-1.09649785e-01}},
                                                                   
  {{-1.49922848e-01,-1.17916812e-03, 9.54975337e-02,-9.88881662e-02,
     1.24302926e-02,-7.73907155e-02,-8.65815729e-02, 1.41330302e-01},
   {-2.90650669e-02,-5.41602029e-03, 3.57534140e-02, 6.76299781e-02,
    -1.63987607e-01, 2.42153518e-02,-8.13687406e-03,-5.24597578e-02},
   { 1.39325246e-01, 6.82173520e-02, 4.38031815e-02, 8.89710188e-02,
    -5.84085435e-02,-3.98788713e-02, 1.58270285e-01,-1.14454038e-01},
   {-1.39603699e-02,-2.29765419e-02,-1.32341951e-01,-1.48598760e-01,
    -9.42087397e-02, 1.83729798e-01, 1.70375481e-01,-1.55697569e-01},
   { 9.30128470e-02, 1.08172536e-01, 8.97204038e-03,-1.32065490e-01,
     3.47364098e-02, 1.12325773e-01, 7.97127634e-02, 2.29167975e-02},
   {-5.53933717e-02,-7.85202999e-03, 1.92814860e-02, 9.46359523e-03,
    -7.25269020e-02, 3.35850962e-03,-2.22702567e-02, 5.40823229e-02},
   {-9.88385230e-02, 6.28674924e-02, 9.55010578e-02, 1.19557843e-01,
     1.84023138e-02, 1.07224919e-01,-1.45700350e-01,-2.07521506e-02},
   {-4.24371772e-02,-1.25207186e-01, 1.22784354e-01, 6.77902848e-02,
     4.18225862e-02, 3.89875914e-03,-5.20304479e-02,-5.47501035e-02},
   {-1.31237745e-01,-5.41234063e-03, 1.27026394e-01, 3.95578705e-02,
     2.08508093e-02, 4.57808562e-02,-6.02322854e-02,-7.61188865e-02},
   {-1.04566544e-01,-1.02369666e-01, 1.16341852e-01,-6.05571307e-02,
    -1.11645930e-01,-8.00761059e-02, 1.13964193e-02, 2.33376361e-02},
   { 8.88732821e-02,-4.96218763e-02,-1.76312879e-01,-1.67629227e-01,
    -2.21415646e-02, 8.43058825e-02,-3.06455623e-02, 4.43469658e-02},
   { 1.35659382e-01, 5.47153912e-02,-1.59509465e-01, 1.32596165e-01,
     1.31894322e-02, 4.74002585e-03,-1.70182645e-01, 4.27393243e-02},
   { 1.12731628e-01, 5.90639636e-02, 1.05648220e-01, 9.77545138e-03,
     3.23360227e-02,-5.02460711e-02, 6.07823394e-02,-1.70377970e-01},
   { 3.74364369e-02,-1.03077158e-01, 9.42231640e-02, 1.74878188e-03,
     1.38469890e-01, 1.76135153e-01, 6.75418079e-02,-1.15925074e-02},
   {-1.93796400e-03, 9.58819091e-02, 1.20911919e-01, 2.92120688e-02,
     1.24113105e-01, 7.78279081e-02, 8.33453742e-05,-4.54772823e-02},
   { 4.60800864e-02, 1.34630740e-01,-3.41463648e-02,-4.81227413e-03,
     4.98295128e-02, 1.60204053e-01, 8.85171071e-03, 9.68585070e-03}},
                                                                   
  {{ 9.68688205e-02, 3.46671194e-02, 1.91299528e-01,-8.73725489e-02,
    -8.02098587e-02,-2.53230240e-03, 2.64318734e-02, 1.17114827e-01},
   { 1.50320977e-01, 1.54854536e-01,-1.46181792e-01,-4.11793739e-02,
     5.55585437e-02, 7.04394579e-02, 3.27237919e-02,-9.66423675e-02},
   {-8.28354284e-02, 1.95336089e-01,-2.25068461e-02, 3.48236486e-02,
    -2.29556579e-02,-1.43360108e-01, 4.85908613e-02, 1.39410600e-01},
   {-2.05983780e-02, 1.85573116e-01, 1.07533455e-01, 2.46690381e-02,
     1.64922029e-01, 2.40954757e-02, 1.32163754e-04,-6.61183381e-03},
   { 1.17196061e-01, 1.81889951e-01,-4.80860360e-02,-1.99911177e-01,
     5.12455143e-02,-1.58665776e-01,-4.02094825e-04, 3.31129692e-03},
   {-8.23668167e-02,-1.03888735e-01,-1.27510846e-01, 1.44385263e-01,
     9.60123837e-02, 1.48842007e-01, 2.12201893e-01, 7.46511221e-02},
   { 9.64721814e-02,-6.61377385e-02, 1.86351761e-02,-6.46374226e-02,
    -1.98648646e-02, 2.29643695e-02, 7.78230578e-02,-5.66265099e-02},
   { 3.30840982e-02, 1.38977338e-02,-1.20950364e-01, 5.06723970e-02,
     8.34778547e-02, 7.26310303e-03, 2.23558471e-02, 1.71934366e-02},
   { 8.97444785e-02,-5.63009121e-02, 1.24680758e-01, 1.85307432e-02,
    -7.46309087e-02, 6.03674129e-02, 1.94282103e-02, 8.23261887e-02},
   {-1.92796777e-03, 1.27396777e-01, 5.50150014e-02,-2.50723138e-02,
    -1.48847133e-01, 5.41308001e-02, 4.87822779e-02, 7.40289763e-02},
   {-8.67198780e-02, 2.36815121e-02, 5.31242676e-02, 1.01103805e-01,
     5.09950109e-02, 1.15396708e-01, 1.76811963e-01, 1.24848686e-01},
   {-3.18019912e-02, 4.90484992e-03, 6.79525807e-02, 2.26944983e-02,
